{"learner":{"attributes":{},"feature_names":["age","sex","bmi","children","smoker","region_northeast","region_northwest","region_southeast","region_southwest","age_squared","bmi_squared","bmi_category","smoker_bmi","smoker_age"],"feature_types":["float","int","float","float","int","i","i","i","i","float","float","int","float","float"],"gradient_booster":{"model":{"gbtree_model_param":{"num_parallel_tree":"1","num_trees":"100","size_leaf_vector":"0"},"tree_info":[0,0,0,0,0,0,0,0,0,0,0,0,0,0,0,0,0,0,0,0,0,0,0,0,0,0,0,0,0,0,0,0,0,0,0,0,0,0,0,0,0,0,0,0,0,0,0,0,0,0,0,0,0,0,0,0,0,0,0,0,0,0,0,0,0,0,0,0,0,0,0,0,0,0,0,0,0,0,0,0,0,0,0,0,0,0,0,0,0,0,0,0,0,0,0,0,0,0,0,0],"trees":[{"base_weights":[-3.894183E2,-3.4402676E3,2.7467623E4,-4.7435596E3,7.3528447E3,8.9040186E2,2.7807662E4,-7.55572E3,-6.912176E2,4.513447E3,1.0837663E4,2.2535344E3,3.0366797E3,-9.79927E3,-6.687153E3,-1.6277295E3,2.264062E3,3.089105E3,5.700277E3,8.3041E2,1.2800824E3,-1.0299109E3,-6.400219E2,-6.891967E2,-2.8962738E2,-2.563967E2,-4.647069E1,5.4005707E1,5.0945294E2,7.873096E1,3.653403E2,3.0830853E2,6.051976E2],"categories":[],"categories_nodes":[],"categories_segments":[],"categories_sizes":[],"default_left":[0,0,0,0,0,0,0,0,0,0,0,0,0,0,0,0,0,0,0,0,0,0,0,0,0,0,0,0,0,0,0,0,0],"id":0,"left_children":[1,3,5,7,9,-1,11,13,15,17,19,-1,-1,21,23,25,27,29,31,-1,-1,-1,-1,-1,-1,-1,-1,-1,-1,-1,-1,-1,-1],"loss_changes":[7.318386E10,1.095054E10,2.8894822E8,7.892093E9,7.822469E8,0E0,4.3555635E8,7.31478E8,7.924668E8,6.353293E7,7.773082E7,0E0,0E0,1.2436992E8,2.1141504E8,2.3509222E8,3.339507E8,2.8297232E7,4.352832E6,0E0,0E0,0E0,0E0,0E0,0E0,0E0,0E0,0E0,0E0,0E0,0E0,0E0,0E0],"parents":[2147483647,0,0,1,1,2,2,3,3,4,4,6,6,7,7,8,8,9,9,10,10,13,13,14,14,15,15,16,16,17,17,18,18],"right_children":[2,4,6,8,10,-1,12,14,16,18,20,-1,-1,22,24,26,28,30,32,-1,-1,-1,-1,-1,-1,-1,-1,-1,-1,-1,-1,-1,-1],"split_conditions":[1.8689351E0,8.706406E-1,-8.946142E-2,4.0114006E-1,1.1679435E-1,8.9040186E2,-5.9406996E-1,-1.1627614E0,1.3963501E0,-6.651564E-1,-8.708458E-1,2.2535344E3,3.0366797E3,7.3433626E-1,2.3798647E0,9.698315E-1,-8.842792E-2,-1.4577118E0,-1.7722522E0,8.3041E2,1.2800824E3,-1.0299109E3,-6.400219E2,-6.891967E2,-2.8962738E2,-2.563967E2,-4.647069E1,5.4005707E1,5.0945294E2,7.873096E1,3.653403E2,3.0830853E2,6.051976E2],"split_indices":[12,12,2,0,0,0,0,0,0,0,2,0,0,3,3,0,3,2,2,0,0,0,0,0,0,0,0,0,0,0,0,0,0],"split_type":[0,0,0,0,0,0,0,0,0,0,0,0,0,0,0,0,0,0,0,0,0,0,0,0,0,0,0,0,0,0,0,0,0],"sum_hessian":[8.59E2,7.75E2,8.4E1,6.92E2,8.3E1,2E0,8.2E1,4.08E2,2.84E2,4.7E1,3.6E1,3E1,5.2E1,1.11E2,2.97E2,2.16E2,6.8E1,2.3E1,2.4E1,1.8E1,1.8E1,9.5E1,1.6E1,2.81E2,1.6E1,1.19E2,9.7E1,4.3E1,2.5E1,5E0,1.8E1,4E0,2E1],"tree_param":{"num_deleted":"0","num_feature":"14","num_nodes":"33","size_leaf_vector":"1"}},{"base_weights":[-1.5144196E2,-3.2009248E3,2.5016834E4,-4.3210874E3,6.8047446E3,1.9555797E3,2.7255773E4,-7.111926E3,-1.0031562E3,4.714612E3,1.0029629E4,8.310417E2,2.774878E3,-8.0503247E3,-5.47775E3,-1.8405353E3,1.79041E3,2.204309E3,5.3172095E3,4.7734503E2,1.067968E3,-9.0445355E2,-6.854561E2,-5.9314136E2,-3.6619696E2,-2.6132382E2,-7.7706924E1,1.4955603E2,1.1362369E3,2.475791E1,2.6116293E2,3.4995074E2,6.021553E2],"categories":[],"categories_nodes":[],"categories_segments":[],"categories_sizes":[],"default_left":[0,0,0,0,0,0,0,0,0,0,0,0,0,0,0,0,0,0,0,0,0,0,0,0,0,0,0,0,0,0,0,0,0],"id":1,"left_children":[1,3,5,7,9,-1,11,13,15,17,19,-1,-1,21,23,25,27,29,31,-1,-1,-1,-1,-1,-1,-1,-1,-1,-1,-1,-1,-1,-1],"loss_changes":[6.462702E10,8.446595E9,5.7964544E8,6.252497E9,4.6498714E8,0E0,3.484836E8,5.18699E8,7.284702E8,6.0889024E7,4.8107776E7,0E0,0E0,2.126254E8,9.113344E7,1.9436608E8,1.862117E8,8.12058E6,2.757824E7,0E0,0E0,0E0,0E0,0E0,0E0,0E0,0E0,0E0,0E0,0E0,0E0,0E0,0E0],"parents":[2147483647,0,0,1,1,2,2,3,3,4,4,6,6,7,7,8,8,9,9,10,10,13,13,14,14,15,15,16,16,17,17,18,18],"right_children":[2,4,6,8,10,-1,12,14,16,18,20,-1,-1,22,24,26,28,30,32,-1,-1,-1,-1,-1,-1,-1,-1,-1,-1,-1,-1,-1,-1],"split_conditions":[1.8689351E0,1E0,-8.073293E-1,2.5896722E-1,1.1679435E-1,1.9555797E3,-8.946142E-2,-4.518971E-1,1.3963501E0,-1.4535731E0,-1.6820288E0,8.310417E2,2.774878E3,-8.842792E-2,1E0,8.987451E-1,2.3798647E0,-1.3760208E0,-1.091675E0,4.7734503E2,1.067968E3,-9.0445355E2,-6.854561E2,-5.9314136E2,-3.6619696E2,-2.6132382E2,-7.7706924E1,1.4955603E2,1.1362369E3,2.475791E1,2.6116293E2,3.4995074E2,6.021553E2],"split_indices":[12,4,0,0,0,0,2,0,0,2,2,0,0,3,5,0,3,0,0,0,0,0,0,0,0,0,0,0,0,0,0,0,0],"split_type":[0,0,0,0,0,0,0,0,0,0,0,0,0,0,0,0,0,0,0,0,0,0,0,0,0,0,0,0,0,0,0,0,0],"sum_hessian":[8.4E2,7.5E2,9E1,6.75E2,7.5E1,2.9E1,6.1E1,3.66E2,3.09E2,4.7E1,2.8E1,2E0,5.9E1,2.3E2,1.36E2,2.38E2,7.1E1,1E1,3.7E1,4E0,2.4E1,1.22E2,1.08E2,1.07E2,2.9E1,1.37E2,1.01E2,7E1,1E0,2E0,8E0,1.2E1,2.5E1],"tree_param":{"num_deleted":"0","num_feature":"14","num_nodes":"33","size_leaf_vector":"1"}},{"base_weights":[1.479948E1,-3.9204966E3,1.4783131E4,-6.413414E3,-7.466944E2,6.4604785E3,2.2320389E4,-8.237724E3,-5.5920166E3,-2.4917742E3,4.9834323E2,4.1072964E3,9.614696E3,1.8125576E3,2.465175E3,-8.737545E3,-5.2787437E3,-6.0608315E3,-4.1440923E3,-3.1534849E3,-1.928211E3,-3.972965E2,1.8871589E3,2.124788E3,5.2180107E3,3.5497675E2,1.00584845E3,-9.225461E2,-7.2231256E2,-7.336877E2,4.2734726E2,2.571504E1,-6.1276355E2,-4.730966E2,4.0793332E2,-1.2289937E2,-3.454909E2,-3.540635E1,-2.6575128E2,2.0583256E1,-1.1884612E2,5.903727E1,4.3986813E2,1.8139591E1,2.599299E2,2.7637958E2,5.678068E2],"categories":[],"categories_nodes":[],"categories_segments":[],"categories_sizes":[],"default_left":[0,0,0,0,0,0,0,0,0,0,0,0,0,0,0,0,0,0,0,0,0,0,0,0,0,0,0,0,0,0,0,0,0,0,0,0,0,0,0,0,0,0,0,0,0,0,0],"id":2,"left_children":[1,3,5,7,9,11,13,15,17,19,21,23,25,-1,-1,27,29,31,33,35,37,39,41,43,45,-1,-1,-1,-1,-1,-1,-1,-1,-1,-1,-1,-1,-1,-1,-1,-1,-1,-1,-1,-1,-1,-1],"loss_changes":[4.9167454E10,5.2804444E9,1.1021734E10,5.143685E8,6.4218534E8,5.988403E8,4.6268006E8,1.2247859E8,1.5205274E8,3.978803E7,2.1594074E8,1.0121491E8,6.1190144E7,0E0,0E0,4.29824E6,4.0488874E8,8.387789E7,3.4264858E8,2.7658816E7,7.827302E7,5.082511E7,2.1887285E8,1.7971712E7,2.0437504E7,0E0,0E0,0E0,0E0,0E0,0E0,0E0,0E0,0E0,0E0,0E0,0E0,0E0,0E0,0E0,0E0,0E0,0E0,0E0,0E0,0E0,0E0],"parents":[2147483647,0,0,1,1,2,2,3,3,4,4,5,5,6,6,7,7,8,8,9,9,10,10,11,11,12,12,15,15,16,16,17,17,18,18,19,19,20,20,21,21,22,22,23,23,24,24],"right_children":[2,4,6,8,10,12,14,16,18,20,22,24,26,-1,-1,28,30,32,34,36,38,40,42,44,46,-1,-1,-1,-1,-1,-1,-1,-1,-1,-1,-1,-1,-1,-1,-1,-1,-1,-1,-1,-1,-1,-1],"split_conditions":[6.152672E-1,9.071701E-2,-8.946142E-2,-1.081721E0,8.5013705E-1,-5.850236E-2,-6.9801396E-1,7.3433626E-1,1E0,4.104728E-1,1.5402766E0,-1.0363933E0,-1.6820288E0,1.8125576E3,2.465175E3,1E0,1E0,-1.9137952E0,2.3798647E0,1.6799133E-1,-4.5118278E-1,1.233844E0,-8.842792E-2,-1.1963E0,-1.1963E0,3.5497675E2,1.00584845E3,-9.225461E2,-7.2231256E2,-7.336877E2,4.2734726E2,2.571504E1,-6.1276355E2,-4.730966E2,4.0793332E2,-1.2289937E2,-3.454909E2,-3.540635E1,-2.6575128E2,2.0583256E1,-1.1884612E2,5.903727E1,4.3986813E2,1.8139591E1,2.599299E2,2.7637958E2,5.678068E2],"split_indices":[13,9,2,9,9,9,9,3,5,9,9,2,2,0,0,7,6,2,3,9,2,9,3,9,9,0,0,0,0,0,0,0,0,0,0,0,0,0,0,0,0,0,0,0,0,0,0],"split_type":[0,0,0,0,0,0,0,0,0,0,0,0,0,0,0,0,0,0,0,0,0,0,0,0,0,0,0,0,0,0,0,0,0,0,0,0,0,0,0,0,0,0,0,0,0,0,0],"sum_hessian":[8.44E2,6.67E2,1.77E2,3.73E2,2.94E2,8.5E1,9.2E1,1.13E2,2.6E2,1.22E2,1.72E2,5E1,3.5E1,3.6E1,5.6E1,9.5E1,1.8E1,1.94E2,6.6E1,5.4E1,6.8E1,1.05E2,6.7E1,1.9E1,3.1E1,3E0,3.2E1,6.8E1,2.7E1,1.5E1,3E0,2E0,1.92E2,6.2E1,4E0,8E0,4.6E1,2.2E1,4.6E1,6E1,4.5E1,4.5E1,2.2E1,4E0,1.5E1,6E0,2.5E1],"tree_param":{"num_deleted":"0","num_feature":"14","num_nodes":"47","size_leaf_vector":"1"}},{"base_weights":[3.1636671E1,-2.3505457E3,2.059746E4,-3.3633452E3,5.6174326E3,1.6148108E3,2.2248006E4,-3.8620762E3,-2.258452E3,3.7314253E3,8.238015E3,7.231837E2,2.2621785E3,-4.260282E3,-2.3680276E3,-2.8876187E3,-1.2078981E3,2.0604106E3,4.5319355E3,6.801472E3,1.00096204E3,-5.7668E2,-4.0465033E2,7.4291E1,-3.232822E2,-2.9661255E2,4.2501537E1,2.4099503E2,-1.6259346E2,3.681709E1,2.3546948E2,2.4867534E2,5.144239E2,4.126145E2,7.714044E2],"categories":[],"categories_nodes":[],"categories_segments":[],"categories_sizes":[],"default_left":[0,0,0,0,0,0,0,0,0,0,0,0,0,0,0,0,0,0,0,0,0,0,0,0,0,0,0,0,0,0,0,0,0,0,0],"id":3,"left_children":[1,3,5,7,9,-1,11,13,15,17,19,-1,-1,21,23,25,27,29,31,33,-1,-1,-1,-1,-1,-1,-1,-1,-1,-1,-1,-1,-1,-1,-1],"loss_changes":[4.247509E10,6.2892554E9,3.016868E8,3.71499E8,4.0419507E8,0E0,1.900073E8,2.7191245E8,1.399433E8,6.155859E7,2.35392E7,0E0,0E0,9.679411E7,2.7681446E8,3.636941E7,1.29447E8,8.595056E6,3.1037056E7,2.4323584E7,0E0,0E0,0E0,0E0,0E0,0E0,0E0,0E0,0E0,0E0,0E0,0E0,0E0,0E0,0E0],"parents":[2147483647,0,0,1,1,2,2,3,3,4,4,6,6,7,7,8,8,9,9,10,10,13,13,14,14,15,15,16,16,17,17,18,18,19,19],"right_children":[2,4,6,8,10,-1,12,14,16,18,20,-1,-1,22,24,26,28,30,32,34,-1,-1,-1,-1,-1,-1,-1,-1,-1,-1,-1,-1,-1,-1,-1],"split_conditions":[1.8689351E0,9.5047253E-1,1.2182493E0,7.3433626E-1,2.002126E0,1.6148108E3,-8.946142E-2,8.8561356E-1,2.7225995E-1,-1.0363933E0,-7.715173E-1,7.231837E2,2.2621785E3,-1.3004416E0,1.0586108E0,1E0,3.6662203E-1,7.358636E-1,7.358636E-1,2.243319E0,1.00096204E3,-5.7668E2,-4.0465033E2,7.4291E1,-3.232822E2,-2.9661255E2,4.2501537E1,2.4099503E2,-1.6259346E2,3.681709E1,2.3546948E2,2.4867534E2,5.144239E2,4.126145E2,7.714044E2],"split_indices":[12,12,13,3,13,0,2,2,2,2,2,0,0,2,2,4,2,13,13,13,0,0,0,0,0,0,0,0,0,0,0,0,0,0,0],"split_type":[0,0,0,0,0,0,0,0,0,0,0,0,0,0,0,0,0,0,0,0,0,0,0,0,0,0,0,0,0,0,0,0,0,0,0],"sum_hessian":[8.65E2,7.76E2,8.9E1,6.89E2,8.7E1,2.7E1,6.2E1,4.73E2,2.16E2,5.2E1,3.5E1,2E0,6E1,3.72E2,1.01E2,1.34E2,8.2E1,1.8E1,3.4E1,2.2E1,1.3E1,4.3E1,3.29E2,2.2E1,7.9E1,1.31E2,3E0,8E0,7.4E1,3E0,1.5E1,9E0,2.5E1,7E0,1.5E1],"tree_param":{"num_deleted":"0","num_feature":"14","num_nodes":"35","size_leaf_vector":"1"}},{"base_weights":[-1.1513962E2,-2.2412227E3,1.8773729E4,-3.1067258E3,5.1976636E3,1.6127032E4,2.1549822E3,-5.342588E3,-4.290464E1,3.5438982E3,7.697361E2,3.0517593E2,1.6340298E3,-6.293289E3,-3.8859253E3,-7.477591E2,2.0246133E3,2.0343351E3,4.2599053E3,-6.7329205E2,-4.845374E2,-4.412717E2,-3.2048737E2,-1.560632E2,5.713205E0,8.5876625E1,3.9092633E2,2.7211774E2,1.0451399E2,2.0963219E2,4.66306E2],"categories":[],"categories_nodes":[],"categories_segments":[],"categories_sizes":[],"default_left":[0,0,0,0,0,0,0,0,0,0,0,0,0,0,0,0,0,0,0,0,0,0,0,0,0,0,0,0,0,0,0],"id":4,"left_children":[1,3,5,7,9,11,-1,13,15,17,-1,-1,-1,19,21,23,25,27,29,-1,-1,-1,-1,-1,-1,-1,-1,-1,-1,-1,-1],"loss_changes":[3.4137321E10,4.9350697E9,2.843484E8,4.6922143E9,3.03434E8,8.398336E7,0E0,5.2394496E8,4.2413072E8,4.5376896E7,0E0,0E0,0E0,1.1887514E8,4.2902784E7,1.4206664E8,1.5923664E8,9.385576E6,1.900928E7,0E0,0E0,0E0,0E0,0E0,0E0,0E0,0E0,0E0,0E0,0E0,0E0],"parents":[2147483647,0,0,1,1,2,2,3,3,4,4,5,5,7,7,8,8,9,9,13,13,14,14,15,15,16,16,17,17,18,18],"right_children":[2,4,6,8,10,12,-1,14,16,18,-1,-1,-1,20,22,24,26,28,30,-1,-1,-1,-1,-1,-1,-1,-1,-1,-1,-1,-1],"split_conditions":[1.8618213E0,9.232032E-1,3.3005363E-1,4.0114006E-1,1.1679435E-1,-8.946142E-2,2.1549822E3,-4.518971E-1,1.3963501E0,-1.0363933E0,7.697361E2,3.0517593E2,1.6340298E3,7.3433626E-1,7.3433626E-1,8.987451E-1,-8.842792E-2,1E0,-1.3760208E0,-6.7329205E2,-4.845374E2,-4.412717E2,-3.2048737E2,-1.560632E2,5.713205E0,8.5876625E1,3.9092633E2,2.7211774E2,1.0451399E2,2.0963219E2,4.66306E2],"split_indices":[12,12,0,0,0,2,0,0,0,2,0,0,0,3,3,0,3,5,0,0,0,0,0,0,0,0,0,0,0,0,0],"split_type":[0,0,0,0,0,0,0,0,0,0,0,0,0,0,0,0,0,0,0,0,0,0,0,0,0,0,0,0,0,0,0],"sum_hessian":[8.48E2,7.63E2,8.5E1,6.84E2,7.9E1,4.7E1,3.8E1,3.95E2,2.89E2,4.9E1,3E1,1E0,4.6E1,2.37E2,1.58E2,2.16E2,7.3E1,1.7E1,3.2E1,1.79E2,5.8E1,8.6E1,7.2E1,1.07E2,1.09E2,4.6E1,2.7E1,9E0,8E0,6E0,2.6E1],"tree_param":{"num_deleted":"0","num_feature":"14","num_nodes":"31","size_leaf_vector":"1"}},{"base_weights":[8.775033E1,-2.1542925E3,1.6009594E4,-4.0846772E3,-1.703413E1,1.0069946E4,1.7245082E4,-4.8425312E3,2.5445574E3,-5.841095E2,6.111588E3,3.8601968E2,1.0890449E3,1.3470629E3,1.8694912E3,-5.9869897E3,-3.9368386E3,1.6702058E3,3.339375E3,-1.6310933E3,6.871347E2,4.5740625E3,8.164832E2,-6.265212E2,-2.9169275E2,-4.4603195E2,-2.3513785E2,2.0160306E2,1.05361305E2,2.1958218E2,3.874191E2,-2.6441483E2,-1.0002678E2,-1.1661788E1,1.9917789E2,3.0916818E2,5.747275E2],"categories":[],"categories_nodes":[],"categories_segments":[],"categories_sizes":[],"default_left":[0,0,0,0,0,0,0,0,0,0,0,0,0,0,0,0,0,0,0,0,0,0,0,0,0,0,0,0,0,0,0,0,0,0,0,0,0],"id":5,"left_children":[1,3,5,7,9,11,13,15,17,19,21,-1,-1,-1,-1,23,25,27,29,31,33,35,-1,-1,-1,-1,-1,-1,-1,-1,-1,-1,-1,-1,-1,-1,-1],"loss_changes":[3.1234064E10,3.1643658E9,6.188851E8,2.0369905E9,1.2720876E9,6.495795E7,2.2973235E8,3.5165338E8,2.3610464E7,4.4699645E8,6.051776E7,0E0,0E0,0E0,0E0,1.1668122E8,1.5965338E8,2.567008E6,4.336352E6,1.149423E8,1.5962115E8,1.7014208E7,0E0,0E0,0E0,0E0,0E0,0E0,0E0,0E0,0E0,0E0,0E0,0E0,0E0,0E0,0E0],"parents":[2147483647,0,0,1,1,2,2,3,3,4,4,5,5,6,6,7,7,8,8,9,9,10,10,15,15,16,16,17,17,18,18,19,19,20,20,21,21],"right_children":[2,4,6,8,10,12,14,16,18,20,22,-1,-1,-1,-1,24,26,28,30,32,34,36,-1,-1,-1,-1,-1,-1,-1,-1,-1,-1,-1,-1,-1,-1,-1],"split_conditions":[1.7559056E0,1.5219115E-2,5.208172E-2,1E0,1E0,-1.1963E0,-8.5522723E-1,-8.842792E-2,-7.521948E-1,1.0384377E0,-7.715173E-1,3.8601968E2,1.0890449E3,1.3470629E3,1.8694912E3,-3.3562404E-1,1E0,1E0,1.4713562E0,4.104728E-1,-8.842792E-2,4.104728E-1,8.164832E2,-6.265212E2,-2.9169275E2,-4.4603195E2,-2.3513785E2,2.0160306E2,1.05361305E2,2.1958218E2,3.874191E2,-2.6441483E2,-1.0002678E2,-1.1661788E1,1.9917789E2,3.0916818E2,5.747275E2],"split_indices":[12,9,2,4,4,9,9,3,9,9,2,0,0,0,0,9,5,5,12,9,3,9,0,0,0,0,0,0,0,0,0,0,0,0,0,0,0],"split_type":[0,0,0,0,0,0,0,0,0,0,0,0,0,0,0,0,0,0,0,0,0,0,0,0,0,0,0,0,0,0,0,0,0,0,0,0,0],"sum_hessian":[8.73E2,7.66E2,1.07E2,4.02E2,3.64E2,2E1,8.7E1,3.61E2,4.1E1,3.34E2,3E1,3E0,1.7E1,2.7E1,6E1,1.57E2,2.04E2,2.1E1,2E1,1.83E2,1.51E2,1.9E1,1.1E1,1.43E2,1.4E1,1.52E2,5.2E1,1.2E1,9E0,8E0,1.2E1,6.9E1,1.14E2,9.4E1,5.7E1,1E1,9E0],"tree_param":{"num_deleted":"0","num_feature":"14","num_nodes":"37","size_leaf_vector":"1"}},{"base_weights":[-9.086497E1,-2.0072347E3,1.4447362E4,-2.597386E3,3.7712007E3,7.5155E2,1.5228442E4,-4.4806196E3,-4.019933E2,2.1456265E3,5.42929E3,1.3250734E4,1.7979779E3,-5.7784565E3,-3.9523784E3,-9.84492E2,1.5504955E3,6.720945E2,2.6664868E3,3.031091E2,5.938783E2,1.1014261E3,1.5162104E3,-6.6870264E2,-5.1061157E2,-4.2161777E2,-2.985191E2,-4.263014E1,-2.338586E2,3.2026773E2,1.17297325E2,3.1640625E-1,1.2290092E2,2.8658133E2,1.687581E2],"categories":[],"categories_nodes":[],"categories_segments":[],"categories_sizes":[],"default_left":[0,0,0,0,0,0,0,0,0,0,0,0,0,0,0,0,0,0,0,0,0,0,0,0,0,0,0,0,0,0,0,0,0,0,0],"id":6,"left_children":[1,3,5,7,9,-1,11,13,15,17,19,21,-1,23,25,27,29,31,33,-1,-1,-1,-1,-1,-1,-1,-1,-1,-1,-1,-1,-1,-1,-1,-1],"loss_changes":[2.3682664E10,2.570819E9,4.2157056E8,2.8178857E9,1.7702502E8,0E0,2.405929E8,2.2876518E8,3.609203E8,2.660552E7,2.3542464E7,6.811034E7,0E0,2.9385472E7,5.477197E7,1.8342864E8,4.177603E7,4.0940205E6,4.32E5,0E0,0E0,0E0,0E0,0E0,0E0,0E0,0E0,0E0,0E0,0E0,0E0,0E0,0E0,0E0,0E0],"parents":[2147483647,0,0,1,1,2,2,3,3,4,4,6,6,7,7,8,8,9,9,10,10,11,11,13,13,14,14,15,15,16,16,17,17,18,18],"right_children":[2,4,6,8,10,-1,12,14,16,18,20,22,-1,24,26,28,30,32,34,-1,-1,-1,-1,-1,-1,-1,-1,-1,-1,-1,-1,-1,-1,-1,-1],"split_conditions":[1.7566961E0,1E0,-5.8007393E-2,2.5896722E-1,-2.5378522E-2,7.5155E2,3.3005363E-1,-1.1627614E0,1.3963501E0,-1.3318957E0,-1.3674884E0,7.8628504E-1,1.7979779E3,-4.8263684E-1,1E0,1E0,-7.715173E-1,-1.0205885E0,1E0,3.031091E2,5.938783E2,1.1014261E3,1.5162104E3,-6.6870264E2,-5.1061157E2,-4.2161777E2,-2.985191E2,-4.263014E1,-2.338586E2,3.2026773E2,1.17297325E2,3.1640625E-1,1.2290092E2,2.8658133E2,1.687581E2],"split_indices":[12,4,2,0,0,0,0,0,0,2,2,2,0,2,5,8,2,0,8,0,0,0,0,0,0,0,0,0,0,0,0,0,0,0,0],"split_type":[0,0,0,0,0,0,0,0,0,0,0,0,0,0,0,0,0,0,0,0,0,0,0,0,0,0,0,0,0,0,0,0,0,0,0],"sum_hessian":[8.48E2,7.5E2,9.8E1,6.81E2,6.9E1,1.1E1,8.7E1,3.66E2,3.15E2,3.6E1,3.3E1,5.4E1,3.3E1,1.03E2,2.63E2,2.43E2,7.2E1,1E1,2.6E1,7E0,2.6E1,2.8E1,2.6E1,4E1,6.3E1,2.04E2,5.9E1,1.73E2,7E1,1.2E1,6E1,5E0,5E0,2E1,6E0],"tree_param":{"num_deleted":"0","num_feature":"14","num_nodes":"35","size_leaf_vector":"1"}},{"base_weights":[5.6396885E0,-1.7212223E3,1.3624647E4,-2.3702651E3,3.6404336E3,1.1702986E4,1.5500773E3,-3.9387668E3,-4.2495813E2,2.6933838E3,5.7298535E2,9.751092E3,1.392143E3,-5.5440366E3,-3.2592007E3,-1.4227412E3,5.821239E2,1.5708949E3,3.318353E3,1.9788731E2,9.9442035E2,-6.191018E2,-4.7727286E2,-2.1118657E2,-3.5660272E2,-1.9251707E2,3.4052437E1,-9.956654E1,7.736589E1,1.4488835E1,1.6998058E2,3.6804562E2,1.7828703E2],"categories":[],"categories_nodes":[],"categories_segments":[],"categories_sizes":[],"default_left":[0,0,0,0,0,0,0,0,0,0,0,0,0,0,0,0,0,0,0,0,0,0,0,0,0,0,0,0,0,0,0,0,0],"id":7,"left_children":[1,3,5,7,9,11,-1,13,15,17,-1,19,-1,21,23,25,27,29,31,-1,-1,-1,-1,-1,-1,-1,-1,-1,-1,-1,-1,-1,-1],"loss_changes":[2.0272577E10,2.670786E9,1.6830874E8,2.0823071E9,1.4880627E8,8.941926E7,0E0,3.942866E8,3.0831213E8,3.617696E7,0E0,2.6849536E7,0E0,2.58432E7,8.68137E7,1.3708678E8,4.700719E7,3.981752E6,1.4010336E7,0E0,0E0,0E0,0E0,0E0,0E0,0E0,0E0,0E0,0E0,0E0,0E0,0E0,0E0],"parents":[2147483647,0,0,1,1,2,2,3,3,4,4,5,5,7,7,8,8,9,9,11,11,13,13,14,14,15,15,16,16,17,17,18,18],"right_children":[2,4,6,8,10,12,-1,14,16,18,-1,20,-1,22,24,26,28,30,32,-1,-1,-1,-1,-1,-1,-1,-1,-1,-1,-1,-1,-1,-1],"split_conditions":[1.8689351E0,1E0,1.8788077E-1,2.5896722E-1,4.0114006E-1,7.230658E-1,1.5500773E3,-1.1627614E0,1.040918E0,-9.9402636E-1,5.7298535E2,-1.8111545E-1,1.392143E3,-1.05113044E-1,-8.93256E-1,1E0,-9.4274694E-1,-1.3760208E0,1E0,1.9788731E2,9.9442035E2,-6.191018E2,-4.7727286E2,-2.1118657E2,-3.5660272E2,-1.9251707E2,3.4052437E1,-9.956654E1,7.736589E1,1.4488835E1,1.6998058E2,3.6804562E2,1.7828703E2],"split_indices":[12,4,0,0,0,10,0,0,0,10,0,10,0,10,10,5,10,0,8,0,0,0,0,0,0,0,0,0,0,0,0,0,0],"split_type":[0,0,0,0,0,0,0,0,0,0,0,0,0,0,0,0,0,0,0,0,0,0,0,0,0,0,0,0,0,0,0,0,0],"sum_hessian":[8.6E2,7.64E2,9.6E1,6.82E2,8.2E1,5.1E1,4.5E1,3.77E2,3.05E2,5.8E1,2.4E1,3E1,2.1E1,1.1E2,2.67E2,1.53E2,1.52E2,2.2E1,3.6E1,1E0,2.9E1,5.6E1,5.4E1,5.8E1,2.09E2,1.19E2,3.4E1,1.6E1,1.36E2,2E0,2E1,2.8E1,8E0],"tree_param":{"num_deleted":"0","num_feature":"14","num_nodes":"33","size_leaf_vector":"1"}},{"base_weights":[4.3160824E1,-1.4358219E3,1.1921273E4,-2.0868723E3,3.5817446E3,1.00087384E3,1.3910604E3,-3.8043096E3,1.4680225E1,2.2471206E3,5.2009614E3,-4.6299097E3,-3.101708E3,-1.0875192E3,7.861383E2,1.2795924E3,2.664793E3,4.0620789E3,6.303987E3,-5.078481E2,-2.767423E2,-3.267736E2,-1.204544E2,-2.7110544E2,-7.738911E1,1.210965E1,1.5974721E2,8.0316864E1,2.0191747E2,1.11745415E2,2.9564566E2,1.7969612E2,4.799188E2,6.791072E2,2.901421E2],"categories":[],"categories_nodes":[],"categories_segments":[],"categories_sizes":[],"default_left":[0,0,0,0,0,0,0,0,0,0,0,0,0,0,0,0,0,0,0,0,0,0,0,0,0,0,0,0,0,0,0,0,0,0,0],"id":8,"left_children":[1,3,5,7,9,-1,-1,11,13,15,17,19,21,23,25,27,29,31,33,-1,-1,-1,-1,-1,-1,-1,-1,-1,-1,-1,-1,-1,-1,-1,-1],"loss_changes":[1.5072484E10,2.4999583E9,2.222162E8,2.4399322E9,1.7848486E8,0E0,0E0,2.0142438E8,2.6019664E8,1.6795616E7,2.3385088E7,1.2713779E8,6.032013E7,6.2059424E7,9.6929304E7,4.368292E6,1.2040576E7,2.8108096E7,1.012832E7,0E0,0E0,0E0,0E0,0E0,0E0,0E0,0E0,0E0,0E0,0E0,0E0,0E0,0E0,0E0,0E0],"parents":[2147483647,0,0,1,1,2,2,3,3,4,4,7,7,8,8,9,9,10,10,11,11,12,12,13,13,14,14,15,15,16,16,17,17,18,18],"right_children":[2,4,6,8,10,-1,-1,12,14,16,18,20,22,24,26,28,30,32,34,-1,-1,-1,-1,-1,-1,-1,-1,-1,-1,-1,-1,-1,-1,-1,-1],"split_conditions":[1.8689351E0,9.5047253E-1,1.5219115E-2,9.071701E-2,-5.850236E-2,1.00087384E3,1.3910604E3,-8.842792E-2,8.5013705E-1,-9.9402636E-1,-7.8388536E-1,-5.84323E-1,2.3798647E0,-8.906303E-1,-8.842792E-2,7.3433626E-1,-1.1963E0,2.4704207E-1,1E0,-5.078481E2,-2.767423E2,-3.267736E2,-1.204544E2,-2.7110544E2,-7.738911E1,1.210965E1,1.5974721E2,8.0316864E1,2.0191747E2,1.11745415E2,2.9564566E2,1.7969612E2,4.799188E2,6.791072E2,2.901421E2],"split_indices":[12,12,9,9,9,0,0,3,9,10,10,9,3,10,3,3,9,9,8,0,0,0,0,0,0,0,0,0,0,0,0,0,0,0,0],"split_type":[0,0,0,0,0,0,0,0,0,0,0,0,0,0,0,0,0,0,0,0,0,0,0,0,0,0,0,0,0,0,0,0,0,0,0],"sum_hessian":[8.56E2,7.62E2,9.4E1,6.75E2,8.7E1,5.1E1,4.3E1,3.71E2,3.04E2,4.9E1,3.8E1,1.68E2,2.03E2,1.25E2,1.79E2,1.6E1,3.3E1,2.1E1,1.7E1,1.34E2,3.4E1,1.86E2,1.7E1,1.9E1,1.06E2,9.9E1,8E1,1.1E1,5E0,6E0,2.7E1,6E0,1.5E1,1.4E1,3E0],"tree_param":{"num_deleted":"0","num_feature":"14","num_nodes":"35","size_leaf_vector":"1"}},{"base_weights":[5.5441204E1,-2.0230691E3,7.379948E3,-3.243196E3,-5.0656253E2,3.0750125E3,1.1175497E4,-3.7969006E3,-2.081075E3,-1.00462006E3,6.764208E2,1.9693451E3,4.6480967E3,8.449072E2,1.2238449E4,-4.793759E2,-3.1596355E3,-1.5154752E3,-2.897902E3,-2.2802285E3,-7.510469E2,1.4538837E2,1.6481453E3,7.2446826E2,2.2709539E3,2.1266356E2,4.896822E3,5.1285785E2,1.2374138E3,-2.0884111E2,-3.333095E2,-2.1819127E2,9.950775E1,-3.6131958E2,-1.6159702E2,-2.8317087E2,-1.6327068E2,1.1044436E1,-1.27369705E2,-1.6575953E1,4.3873248E2,4.1191455E2,-1.2928367E1,7.358561E-1,1.23563835E2,3.3433395E2,1.8887535E2,5.486603E2,3.7466318E2],"categories":[],"categories_nodes":[],"categories_segments":[],"categories_sizes":[],"default_left":[0,0,0,0,0,0,0,0,0,0,0,0,0,0,0,0,0,0,0,0,0,0,0,0,0,0,0,0,0,0,0,0,0,0,0,0,0,0,0,0,0,0,0,0,0,0,0,0,0],"id":9,"left_children":[1,3,5,7,9,11,13,15,17,19,21,23,25,-1,27,-1,29,31,33,35,37,39,41,43,45,-1,47,-1,-1,-1,-1,-1,-1,-1,-1,-1,-1,-1,-1,-1,-1,-1,-1,-1,-1,-1,-1,-1,-1],"loss_changes":[1.2879264E10,1.2177249E9,3.021138E9,2.2696576E8,1.7449171E8,1.456446E8,1.8350592E8,1.411282E8,5.104797E7,6.556712E7,4.5169896E7,1.862992E7,1.2163712E7,0E0,3.105792E6,0E0,2.1468544E7,1.2430939E8,3.817517E7,7.517904E6,7.893592E7,7.727967E7,1.3668538E8,4.3896875E6,1.1309488E7,0E0,1.151232E6,0E0,0E0,0E0,0E0,0E0,0E0,0E0,0E0,0E0,0E0,0E0,0E0,0E0,0E0,0E0,0E0,0E0,0E0,0E0,0E0,0E0,0E0],"parents":[2147483647,0,0,1,1,2,2,3,3,4,4,5,5,6,6,7,7,8,8,9,9,10,10,11,11,12,12,14,14,16,16,17,17,18,18,19,19,20,20,21,21,22,22,23,23,24,24,26,26],"right_children":[2,4,6,8,10,12,14,16,18,20,22,24,26,-1,28,-1,30,32,34,36,38,40,42,44,46,-1,48,-1,-1,-1,-1,-1,-1,-1,-1,-1,-1,-1,-1,-1,-1,-1,-1,-1,-1,-1,-1,-1,-1],"split_conditions":[1E0,2.5896722E-1,-1.0601618E-1,7.3433626E-1,1.2541772E0,1.1679435E-1,-8.073293E-1,-1.1627614E0,1.5571004E0,-9.0395534E-1,6.356368E-1,-1.3760208E0,-1.6820288E0,8.449072E2,-5.8007393E-2,-4.793759E2,-1.0205885E0,1E0,-3.0972424E-1,6.854858E-1,-7.621762E-2,1.7517823E0,1.4674366E0,-8.7581223E-1,-1.0205885E0,2.1266356E2,1E0,5.1285785E2,1.2374138E3,-2.0884111E2,-3.333095E2,-2.1819127E2,9.950775E1,-3.6131958E2,-1.6159702E2,-2.8317087E2,-1.6327068E2,1.1044436E1,-1.27369705E2,-1.6575953E1,4.3873248E2,4.1191455E2,-1.2928367E1,7.358561E-1,1.23563835E2,3.3433395E2,1.8887535E2,5.486603E2,3.7466318E2],"split_indices":[4,0,2,3,0,0,0,0,3,2,2,0,2,0,2,0,0,5,0,0,2,0,0,2,0,0,1,0,0,0,0,0,0,0,0,0,0,0,0,0,0,0,0,0,0,0,0,0,0],"split_type":[0,0,0,0,0,0,0,0,0,0,0,0,0,0,0,0,0,0,0,0,0,0,0,0,0,0,0,0,0,0,0,0,0,0,0,0,0,0,0,0,0,0,0,0,0,0,0,0,0],"sum_hessian":[8.44E2,6.58E2,1.86E2,3.64E2,2.94E2,8.8E1,9.8E1,2.45E2,1.19E2,2.07E2,8.7E1,5.3E1,3.5E1,3E1,6.8E1,9.3E1,1.52E2,7.2E1,4.7E1,3.3E1,1.74E2,5.7E1,3E1,1.1E1,4.2E1,4E0,3.1E1,2E0,6.6E1,2.3E1,1.29E2,5.7E1,1.5E1,2.9E1,1.8E1,1.6E1,1.7E1,6.6E1,1.08E2,5.4E1,3E0,1.2E1,1.8E1,5E0,6E0,9E0,3.3E1,1.8E1,1.3E1],"tree_param":{"num_deleted":"0","num_feature":"14","num_nodes":"49","size_leaf_vector":"1"}},{"base_weights":[1.5354457E2,-1.5983523E3,6.719926E3,-2.844494E3,-5.0690514E1,2.8262236E3,1.0296974E4,-3.349115E3,-1.8821593E3,-3.9979642E2,1.2058053E3,1.6968517E3,4.2973057E3,9.215015E3,1.2957856E3,-3.445353E3,-3.1307434E1,-6.1226544E2,-2.0756013E3,-1.856293E3,-1.996171E2,3.485423E3,7.4472455E2,8.4318994E2,2.1239905E3,3.3018665E3,5.2199126E3,7.9093134E2,1.0644652E3,-3.9650095E2,-2.8883246E2,-2.0423381E2,7.0229535E2,-2.4661893E2,5.071959E2,-2.7002338E2,-1.3692879E2,-2.4344615E2,-1.3049706E2,1.7057674E2,-6.916012E1,-1.3519084E1,7.857198E2,-4.0392048E1,2.3409415E2,5.3904335E1,1.5869919E2,1.5924638E2,2.9657507E2,1.885662E2,4.028326E2,5.646344E2,2.3158179E2],"categories":[],"categories_nodes":[],"categories_segments":[],"categories_sizes":[],"default_left":[0,0,0,0,0,0,0,0,0,0,0,0,0,0,0,0,0,0,0,0,0,0,0,0,0,0,0,0,0,0,0,0,0,0,0,0,0,0,0,0,0,0,0,0,0,0,0,0,0,0,0,0,0],"id":10,"left_children":[1,3,5,7,9,11,13,15,17,19,21,23,25,27,-1,29,31,33,35,37,39,41,43,45,47,49,51,-1,-1,-1,-1,-1,-1,-1,-1,-1,-1,-1,-1,-1,-1,-1,-1,-1,-1,-1,-1,-1,-1,-1,-1,-1,-1],"loss_changes":[9.995886E9,1.3228792E9,2.5197153E9,1.7823002E8,1.3514766E8,1.4057267E8,1.540946E8,7.90784E7,3.1400736E7,6.9895544E7,6.78272E7,1.7169936E7,1.766368E7,4.834304E7,0E0,5.830835E7,1.2783392E8,2.1273266E8,4.703904E7,6.067056E6,2.0084994E8,1.7517582E8,1.0545428E8,3.442815E6,1.0489376E7,1.400904E7,9.215232E6,0E0,0E0,0E0,0E0,0E0,0E0,0E0,0E0,0E0,0E0,0E0,0E0,0E0,0E0,0E0,0E0,0E0,0E0,0E0,0E0,0E0,0E0,0E0,0E0,0E0,0E0],"parents":[2147483647,0,0,1,1,2,2,3,3,4,4,5,5,6,6,7,7,8,8,9,9,10,10,11,11,12,12,13,13,15,15,16,16,17,17,18,18,19,19,20,20,21,21,22,22,23,23,24,24,25,25,26,26],"right_children":[2,4,6,8,10,12,14,16,18,20,22,24,26,28,-1,30,32,34,36,38,40,42,44,46,48,50,52,-1,-1,-1,-1,-1,-1,-1,-1,-1,-1,-1,-1,-1,-1,-1,-1,-1,-1,-1,-1,-1,-1,-1,-1,-1,-1],"split_conditions":[1E0,2.5896722E-1,-8.946142E-2,-4.518971E-1,1.3963501E0,4.570791E-2,8.987451E-1,2.3798647E0,-1.2689877E0,-1.0695028E0,-7.715173E-1,-1.0363933E0,-7.715173E-1,7.8628504E-1,1.2957856E3,1E0,1E0,-1.3674884E0,-1.3664247E-1,6.854858E-1,-4.7353172E-1,-1.0165277E0,6.687463E-1,1E0,1E0,4.0114006E-1,1E0,7.9093134E2,1.0644652E3,-3.9650095E2,-2.8883246E2,-2.0423381E2,7.0229535E2,-2.4661893E2,5.071959E2,-2.7002338E2,-1.3692879E2,-2.4344615E2,-1.3049706E2,1.7057674E2,-6.916012E1,-1.3519084E1,7.857198E2,-4.0392048E1,2.3409415E2,5.3904335E1,1.5869919E2,1.5924638E2,2.9657507E2,1.885662E2,4.028326E2,5.646344E2,2.3158179E2],"split_indices":[4,0,2,0,0,0,0,3,2,2,2,2,2,2,0,1,1,2,2,0,2,2,2,8,5,0,8,0,0,0,0,0,0,0,0,0,0,0,0,0,0,0,0,0,0,0,0,0,0,0,0,0,0],"split_type":[0,0,0,0,0,0,0,0,0,0,0,0,0,0,0,0,0,0,0,0,0,0,0,0,0,0,0,0,0,0,0,0,0,0,0,0,0,0,0,0,0,0,0,0,0,0,0,0,0,0,0,0,0],"sum_hessian":[8.67E2,6.85E2,1.82E2,3.79E2,3.06E2,8.8E1,9.4E1,2.47E2,1.32E2,2.4E2,6.6E1,5.1E1,3.7E1,7E1,2.4E1,2.4E2,7E0,1.8E1,1.14E2,2.8E1,2.12E2,1E1,5.6E1,1.8E1,3.3E1,2E1,1.7E1,4E1,3E1,1.21E2,1.19E2,6E0,1E0,1.4E1,4E0,5.9E1,5.5E1,1.2E1,1.6E1,4.3E1,1.69E2,6E0,4E0,3.3E1,2.3E1,1.4E1,4E0,2.2E1,1.1E1,8E0,1.2E1,1.4E1,3E0],"tree_param":{"num_deleted":"0","num_feature":"14","num_nodes":"53","size_leaf_vector":"1"}},{"base_weights":[3.6744425E-1,-1.1551028E3,8.0226284E3,-2.617052E3,-3.0454535E2,3.5264314E3,8.97497E3,-3.0412358E3,1.1274244E3,-5.9818524E2,2.8083098E3,1.9908654E3,5.580922E3,7.7877637E3,1.1415145E3,-2.647979E3,-4.1582565E2,2.4047412E2,1.4116233E3,-1.3379647E3,5.215897E2,1.8488309E2,3.1534854E3,2.707294E3,7.038164E2,5.898935E2,1.677417E2,6.339922E2,9.1667645E2,3.126622E2,-2.729967E2,-2.0141798E1,7.327207E1,8.091108E1,1.8858066E2,-1.574675E2,-6.5026024E1,9.948837E1,-8.047069E1,3.7073288E2,1.7858347E2,4.5174527E2,7.177082E1,1.5622527E1,9.385557E1],"categories":[],"categories_nodes":[],"categories_segments":[],"categories_sizes":[],"default_left":[0,0,0,0,0,0,0,0,0,0,0,0,0,0,0,0,0,0,0,0,0,0,0,0,0,0,0,0,0,0,0,0,0,0,0,0,0,0,0,0,0,0,0,0,0],"id":11,"left_children":[1,3,5,7,9,11,13,15,17,19,21,23,25,27,-1,29,-1,31,33,35,37,-1,39,41,43,-1,-1,-1,-1,-1,-1,-1,-1,-1,-1,-1,-1,-1,-1,-1,-1,-1,-1,-1,-1],"loss_changes":[7.730747E9,9.05694E8,4.1795123E8,4.2910566E8,4.2397485E8,5.198525E7,1.6024269E8,9.48544E7,6.718512E6,3.511054E8,7.41728E6,1.0081584E7,3.592E4,6.3674624E7,0E0,9.42295E7,0E0,1.887742E6,4.473904E6,4.0486656E7,1.0688666E8,0E0,1.4588352E7,2.5569516E7,6.2462075E5,0E0,0E0,0E0,0E0,0E0,0E0,0E0,0E0,0E0,0E0,0E0,0E0,0E0,0E0,0E0,0E0,0E0,0E0,0E0,0E0],"parents":[2147483647,0,0,1,1,2,2,3,3,4,4,5,5,6,6,7,7,8,8,9,9,10,10,11,11,12,12,13,13,15,15,17,17,18,18,19,19,20,20,22,22,23,23,24,24],"right_children":[2,4,6,8,10,12,14,16,18,20,22,24,26,28,-1,30,-1,32,34,36,38,-1,40,42,44,-1,-1,-1,-1,-1,-1,-1,-1,-1,-1,-1,-1,-1,-1,-1,-1,-1,-1,-1,-1],"split_conditions":[1.7416782E0,-3.8081068E-1,-8.946142E-2,1E0,1E0,4.570791E-2,7.5657225E-1,1E0,-1.4577118E0,8.987451E-1,1.1679435E-1,-3.0798417E-1,1E0,7.8628504E-1,1.1415145E3,-1.9137952E0,-4.1582565E2,-1.0205885E0,1E0,6.143994E-1,1E0,1.8488309E2,1E0,1E0,-1.0205885E0,5.898935E2,1.677417E2,6.339922E2,9.1667645E2,3.126622E2,-2.729967E2,-2.0141798E1,7.327207E1,8.091108E1,1.8858066E2,-1.574675E2,-6.5026024E1,9.948837E1,-8.047069E1,3.7073288E2,1.7858347E2,4.5174527E2,7.177082E1,1.5622527E1,9.385557E1],"split_indices":[12,0,2,4,4,0,0,8,2,0,0,2,8,2,0,2,0,0,1,0,8,0,6,6,0,0,0,0,0,0,0,0,0,0,0,0,0,0,0,0,0,0,0,0,0],"split_type":[0,0,0,0,0,0,0,0,0,0,0,0,0,0,0,0,0,0,0,0,0,0,0,0,0,0,0,0,0,0,0,0,0,0,0,0,0,0,0,0,0,0,0,0,0],"sum_hessian":[8.32E2,7.28E2,1.04E2,2.67E2,4.61E2,1.9E1,8.5E1,2.4E2,2.7E1,4.22E2,3.9E1,1.2E1,7E0,6E1,2.5E1,1.8E2,6E1,7E0,2E1,2.54E2,1.68E2,1.2E1,2.7E1,7E0,5E0,6E0,1E0,3.2E1,2.8E1,2E0,1.78E2,4E0,3E0,1E1,1E1,1.88E2,6.6E1,1.24E2,4.4E1,1.8E1,9E0,3E0,4E0,2E0,3E0],"tree_param":{"num_deleted":"0","num_feature":"14","num_nodes":"45","size_leaf_vector":"1"}},{"base_weights":[-1.2416751E1,-9.665929E2,7.9904844E3,-1.356742E3,2.326066E3,6.998088E3,1.0157153E4,-2.2167937E3,1.647591E2,1.3804432E3,3.4643958E3,5.723813E3,8.4704553E2,4.689754E2,1.0645172E3,-3.006259E3,-1.6456926E3,-6.4830597E2,5.727222E2,5.889308E2,1.769968E3,1.8898668E2,3.70818E3,9.2784966E1,5.8256055E2,-3.6332306E2,-2.4657556E2,-2.1501086E2,-9.160562E0,1.1218624E2,-1.7932565E2,-3.2036472E1,1.3236795E2,3.2064568E1,1.1686859E2,7.531137E1,2.0909123E2,4.8730112E2,2.92145E2],"categories":[],"categories_nodes":[],"categories_segments":[],"categories_sizes":[],"default_left":[0,0,0,0,0,0,0,0,0,0,0,0,0,0,0,0,0,0,0,0,0,0,0,0,0,0,0,0,0,0,0,0,0,0,0,0,0,0,0],"id":12,"left_children":[1,3,5,7,9,11,13,15,17,19,21,23,-1,-1,-1,25,27,29,31,33,35,-1,37,-1,-1,-1,-1,-1,-1,-1,-1,-1,-1,-1,-1,-1,-1,-1,-1],"loss_changes":[6.66647E9,1.00516563E9,1.2888678E8,9.137468E8,8.456131E7,7.722214E7,2.2118144E7,1.9613798E8,8.429155E7,1.344836E7,7.194336E6,1.3634304E7,0E0,0E0,0E0,5.407296E7,2.0440269E8,1.7428598E8,1.137673E8,2.269441E6,8.542264E6,0E0,1.4172352E7,0E0,0E0,0E0,0E0,0E0,0E0,0E0,0E0,0E0,0E0,0E0,0E0,0E0,0E0,0E0,0E0],"parents":[2147483647,0,0,1,1,2,2,3,3,4,4,5,5,6,6,7,7,8,8,9,9,10,10,11,11,15,15,16,16,17,17,18,18,19,19,20,20,22,22],"right_children":[2,4,6,8,10,12,14,16,18,20,22,24,-1,-1,-1,26,28,30,32,34,36,-1,38,-1,-1,-1,-1,-1,-1,-1,-1,-1,-1,-1,-1,-1,-1,-1,-1],"split_conditions":[1.8689351E0,1E0,8.2765865E-1,5.4331297E-1,-2.5378522E-2,7.8628504E-1,5.208172E-2,-8.842792E-2,9.698315E-1,-1.2375336E0,-1.3674884E0,-8.946142E-2,8.4704553E2,4.689754E2,1.0645172E3,-1.1627614E0,1E0,-1.5236948E-1,1.2243942E-1,1E0,-1.3760208E0,1.8898668E2,4.722265E-1,9.2784966E1,5.8256055E2,-3.6332306E2,-2.4657556E2,-2.1501086E2,-9.160562E0,1.1218624E2,-1.7932565E2,-3.2036472E1,1.3236795E2,3.2064568E1,1.1686859E2,7.531137E1,2.0909123E2,4.8730112E2,2.92145E2],"split_indices":[12,4,0,0,0,2,2,3,0,2,2,2,0,0,0,0,5,2,2,8,0,0,0,0,0,0,0,0,0,0,0,0,0,0,0,0,0,0,0],"split_type":[0,0,0,0,0,0,0,0,0,0,0,0,0,0,0,0,0,0,0,0,0,0,0,0,0,0,0,0,0,0,0,0,0,0,0,0,0,0,0],"sum_hessian":[8.71E2,7.79E2,9.2E1,6.97E2,8.2E1,6.6E1,2.6E1,4.45E2,2.52E2,4.6E1,3.6E1,3.8E1,2.8E1,3E0,2.3E1,1.85E2,2.6E2,8.4E1,1.68E2,1.6E1,3E1,6E0,3E1,1E0,3.7E1,8.3E1,1.02E2,1.96E2,6.4E1,3.3E1,5.1E1,7.7E1,9.1E1,1.2E1,4E0,8E0,2.2E1,1E1,2E1],"tree_param":{"num_deleted":"0","num_feature":"14","num_nodes":"39","size_leaf_vector":"1"}},{"base_weights":[-5.3524723E1,-9.516921E2,6.8115864E3,-2.0573943E3,3.3860897E1,3.2065432E3,7.374254E3,-2.340998E3,7.636433E2,-2.3818736E2,2.5372317E3,5.0894596E1,3.5824084E3,6.1462085E3,8.84092E2,-2.7783381E3,-1.3322323E3,3.2901132E2,1.3300001E3,-5.6922986E2,1.02294995E3,1.7972849E3,3.6013274E3,5.1403423E3,2.6009941E3,5.104131E3,7.8075226E2,-2.9159058E2,-3.317896E1,-8.126953E1,-2.6875644E2,1.5034525E1,1.0060894E2,2.7755787E1,1.5917973E2,-1.17267235E2,-1.6007711E1,7.639111E1,1.00959125E3,1.2894199E2,3.1906213E2,6.8064905E2,2.5846494E2,7.744687E2,1.6906654E2,1.1908297E2,3.772993E2,4.0026105E2,5.799698E2],"categories":[],"categories_nodes":[],"categories_segments":[],"categories_sizes":[],"default_left":[0,0,0,0,0,0,0,0,0,0,0,0,0,0,0,0,0,0,0,0,0,0,0,0,0,0,0,0,0,0,0,0,0,0,0,0,0,0,0,0,0,0,0,0,0,0,0,0,0],"id":13,"left_children":[1,3,5,7,9,11,13,15,17,19,21,-1,23,25,-1,27,29,31,33,35,37,39,41,43,45,47,-1,-1,-1,-1,-1,-1,-1,-1,-1,-1,-1,-1,-1,-1,-1,-1,-1,-1,-1,-1,-1,-1,-1],"loss_changes":[5.2229345E9,8.1627584E8,1.7514086E8,2.84208E8,2.7097626E8,1.338576E7,9.695744E7,1.379154E8,7.68559E6,1.5046122E8,2.4234992E7,0E0,6.506704E6,4.4978944E7,0E0,7.408666E7,6.752621E7,2.268157E6,3.415554E6,7.017883E7,1.6855635E8,1.3576624E7,3.1286896E7,2.2842912E7,1.2034112E7,2.07008E6,0E0,0E0,0E0,0E0,0E0,0E0,0E0,0E0,0E0,0E0,0E0,0E0,0E0,0E0,0E0,0E0,0E0,0E0,0E0,0E0,0E0,0E0,0E0],"parents":[2147483647,0,0,1,1,2,2,3,3,4,4,5,5,6,6,7,7,8,8,9,9,10,10,12,12,13,13,15,15,16,16,17,17,18,18,19,19,20,20,21,21,22,22,23,23,24,24,25,25],"right_children":[2,4,6,8,10,12,14,16,18,20,22,-1,24,26,-1,28,30,32,34,36,38,40,42,44,46,48,-1,-1,-1,-1,-1,-1,-1,-1,-1,-1,-1,-1,-1,-1,-1,-1,-1,-1,-1,-1,-1,-1,-1],"split_conditions":[1.7566961E0,-2.5378522E-2,-5.8007393E-2,1E0,1E0,-1.3760208E0,3.3005363E-1,7.3433626E-1,-6.651564E-1,1.3963501E0,-7.715173E-1,5.0894596E1,-2.2521041E-1,8.674033E-1,8.84092E2,-1.6755138E-1,5.131316E-1,1.5571004E0,-8.842792E-2,-1.589914E-1,2.3798647E0,8.987451E-1,-7.0281506E-1,-1.0205885E0,4.570791E-2,-8.842792E-2,7.8075226E2,-2.9159058E2,-3.317896E1,-8.126953E1,-2.6875644E2,1.5034525E1,1.0060894E2,2.7755787E1,1.5917973E2,-1.17267235E2,-1.6007711E1,7.639111E1,1.00959125E3,1.2894199E2,3.1906213E2,6.8064905E2,2.5846494E2,7.744687E2,1.6906654E2,1.1908297E2,3.772993E2,4.0026105E2,5.799698E2],"split_indices":[12,0,2,4,4,0,0,3,0,0,2,0,2,2,0,0,2,3,3,2,3,0,2,0,0,3,0,0,0,0,0,0,0,0,0,0,0,0,0,0,0,0,0,0,0,0,0,0,0],"split_type":[0,0,0,0,0,0,0,0,0,0,0,0,0,0,0,0,0,0,0,0,0,0,0,0,0,0,0,0,0,0,0,0,0,0,0,0,0,0,0,0,0,0,0,0,0,0,0,0,0],"sum_hessian":[8.45E2,7.48E2,9.7E1,3.52E2,3.96E2,1.4E1,8.3E1,3.2E2,3.2E1,3.58E2,3.8E1,2E0,1.2E1,4.8E1,3.5E1,2.22E2,9.8E1,1.9E1,1.3E1,2.84E2,7.4E1,2.4E1,1.4E1,3E0,9E0,3.2E1,1.6E1,2.1E2,1.2E1,7.2E1,2.6E1,1.6E1,3E0,3E0,1E1,1.14E2,1.7E2,7.3E1,1E0,1.9E1,5E0,2E0,1.2E1,1E0,2E0,5E0,4E0,1.5E1,1.7E1],"tree_param":{"num_deleted":"0","num_feature":"14","num_nodes":"49","size_leaf_vector":"1"}},{"base_weights":[-3.2750661E0,-1.1094012E3,5.0585557E3,-1.9298428E3,-5.8609257E1,2.4921772E3,6.867529E3,-2.701575E3,-1.5948583E3,-3.5578973E2,9.586835E2,1.6626624E3,3.321575E3,4.871232E2,7.717947E3,-2.8325918E3,-2.5679828E2,2.4978296E1,-1.8568956E3,-7.755418E2,3.85354E2,-2.5838966E1,3.210251E3,2.4100925E3,1.1454236E3,4.3986865E3,2.7556802E3,1.2336652E3,7.3459805E3,-3.409888E2,-2.2359851E2,4.4463134E0,-4.9386013E1,7.8190216E2,-8.4172035E1,-1.9988995E2,8.167756E0,6.779E1,-1.418744E2,1.0728584E2,-1.3350711E2,-2.907327E1,7.300769E1,1.7578554E1,7.236673E2,3.4077127E2,1.3235763E1,-1.3325753E0,1.5807875E2,3.1153452E2,7.332708E2,1.4153094E2,3.6778647E2,5.651794E2,8.4581885E2],"categories":[],"categories_nodes":[],"categories_segments":[],"categories_sizes":[],"default_left":[0,0,0,0,0,0,0,0,0,0,0,0,0,0,0,0,0,0,0,0,0,0,0,0,0,0,0,0,0,0,0,0,0,0,0,0,0,0,0,0,0,0,0,0,0,0,0,0,0,0,0,0,0,0,0],"id":14,"left_children":[1,3,5,7,9,11,13,15,17,19,21,23,25,-1,27,29,31,33,35,37,39,41,43,45,47,49,51,-1,53,-1,-1,-1,-1,-1,-1,-1,-1,-1,-1,-1,-1,-1,-1,-1,-1,-1,-1,-1,-1,-1,-1,-1,-1,-1,-1],"loss_changes":[4.71439E9,5.9560723E8,6.83904E8,9.599642E7,9.224622E7,3.8509184E7,1.1180058E8,3.6428224E7,1.1592326E8,7.371766E7,1.5303654E8,1.0383816E7,6.774112E6,0E0,1.2455424E7,3.0261632E7,5.2188166E5,2.7002982E8,6.485523E7,1.4212515E8,1.0315313E8,1.0023888E7,2.5530669E8,2.908904E7,1.1119572E7,1.104424E7,2.3224272E7,0E0,6.14848E7,0E0,0E0,0E0,0E0,0E0,0E0,0E0,0E0,0E0,0E0,0E0,0E0,0E0,0E0,0E0,0E0,0E0,0E0,0E0,0E0,0E0,0E0,0E0,0E0,0E0,0E0],"parents":[2147483647,0,0,1,1,2,2,3,3,4,4,5,5,6,6,7,7,8,8,9,9,10,10,11,11,12,12,14,14,15,15,16,16,17,17,18,18,19,19,20,20,21,21,22,22,23,23,24,24,25,25,26,26,28,28],"right_children":[2,4,6,8,10,12,14,16,18,20,22,24,26,-1,28,30,32,34,36,38,40,42,44,46,48,50,52,-1,54,-1,-1,-1,-1,-1,-1,-1,-1,-1,-1,-1,-1,-1,-1,-1,-1,-1,-1,-1,-1,-1,-1,-1,-1,-1,-1],"split_conditions":[1.2911415E0,2.5896722E-1,-1.5117532E-1,-1.1627614E0,1.3963501E0,4.570791E-2,-8.073293E-1,1E0,-1.1161227E0,7.3433626E-1,-8.842792E-2,-9.4950217E-1,4.722265E-1,4.871232E2,-1.210463E-1,-1.685321E-1,-1.4471072E0,-1.0205885E0,2.3798647E0,-5.3146493E-1,1E0,1E0,3.1022424E-1,-8.842792E-2,-8.842792E-2,1E0,8.2765865E-1,1.2336652E3,2.2254124E0,-3.409888E2,-2.2359851E2,4.4463134E0,-4.9386013E1,7.8190216E2,-8.4172035E1,-1.9988995E2,8.167756E0,6.779E1,-1.418744E2,1.0728584E2,-1.3350711E2,-2.907327E1,7.300769E1,1.7578554E1,7.236673E2,3.4077127E2,1.3235763E1,-1.3325753E0,1.5807875E2,3.1153452E2,7.332708E2,1.4153094E2,3.6778647E2,5.651794E2,8.4581885E2],"split_indices":[12,0,10,0,0,0,0,4,10,3,3,0,0,0,10,10,0,0,3,10,8,6,10,3,3,7,0,0,12,0,0,0,0,0,0,0,0,0,0,0,0,0,0,0,0,0,0,0,0,0,0,0,0,0,0],"split_type":[0,0,0,0,0,0,0,0,0,0,0,0,0,0,0,0,0,0,0,0,0,0,0,0,0,0,0,0,0,0,0,0,0,0,0,0,0,0,0,0,0,0,0,0,0,0,0,0,0,0,0,0,0,0,0],"sum_hessian":[8.4E2,6.9E2,1.5E2,3.87E2,3.03E2,6.3E1,8.7E1,1.15E2,2.72E2,2.35E2,6.8E1,3.3E1,3E1,2.8E1,5.9E1,1.09E2,6E0,3.8E1,2.34E2,1.5E2,8.5E1,4.8E1,2E1,1.2E1,2.1E1,8E0,2.2E1,2E0,5.7E1,5.3E1,5.6E1,3E0,3E0,3E0,3.5E1,2.18E2,1.6E1,4.6E1,1.04E2,6.1E1,2.4E1,3.6E1,1.2E1,1.2E1,8E0,8E0,4E0,6E0,1.5E1,7E0,1E0,1E1,1.2E1,2.5E1,3.2E1],"tree_param":{"num_deleted":"0","num_feature":"14","num_nodes":"55","size_leaf_vector":"1"}},{"base_weights":[-2.0599702E2,-1.1770287E3,3.748715E3,-1.8762609E3,1.0783458E2,1.5899314E3,5.7403423E3,-2.410055E3,-1.2670845E3,-5.1046442E2,7.303523E2,7.263656E2,2.5707349E3,5.2148E3,8.108184E2,-2.7187178E3,-1.374888E3,-8.540632E2,-1.7087372E3,-8.0881006E2,3.7342902E-2,1.00691766E3,-1.291171E3,2.869309E2,1.066436E3,2.1513977E3,3.8743253E2,4.439544E2,6.146944E3,-3.013162E2,-2.4235503E2,-2.4375676E2,1.4341594E2,-1.1794076E2,1.1143025E3,-2.0601878E2,-1.2513783E2,-1.7978435E2,-4.302397E1,8.037422E1,-1.9031479E1,3.761084E1,3.9087656E2,-1.5306418E2,-6.7685814E1,-2.6859385E1,7.2595726E1,7.3615265E1,1.8105717E2,2.7265353E2,1.2582635E2,3.8368597E2,6.6608496E2],"categories":[],"categories_nodes":[],"categories_segments":[],"categories_sizes":[],"default_left":[0,0,0,0,0,0,0,0,0,0,0,0,0,0,0,0,0,0,0,0,0,0,0,0,0,0,0,0,0,0,0,0,0,0,0,0,0,0,0,0,0,0,0,0,0,0,0,0,0,0,0,0,0],"id":15,"left_children":[1,3,5,7,9,11,13,15,17,19,21,23,25,27,-1,29,31,33,35,37,39,41,43,45,47,49,-1,-1,51,-1,-1,-1,-1,-1,-1,-1,-1,-1,-1,-1,-1,-1,-1,-1,-1,-1,-1,-1,-1,-1,-1,-1,-1],"loss_changes":[3.2723807E9,6.147202E8,7.1318784E8,1.4099866E8,9.351912E7,6.758578E7,6.598016E7,7.134874E7,3.6664736E7,1.8581356E7,6.894919E7,6.41875E6,1.2437264E7,2.6186752E7,0E0,8.341376E6,1.7066243E8,4.424926E8,1.349584E7,2.8056744E7,7.190363E6,1.9439475E8,1.170622E6,5.316678E6,4.811532E6,1.2493232E7,0E0,0E0,1.1245312E7,0E0,0E0,0E0,0E0,0E0,0E0,0E0,0E0,0E0,0E0,0E0,0E0,0E0,0E0,0E0,0E0,0E0,0E0,0E0,0E0,0E0,0E0,0E0,0E0],"parents":[2147483647,0,0,1,1,2,2,3,3,4,4,5,5,6,6,7,7,8,8,9,9,10,10,11,11,12,12,13,13,15,15,16,16,17,17,18,18,19,19,20,20,21,21,22,22,23,23,24,24,25,25,28,28],"right_children":[2,4,6,8,10,12,14,16,18,20,22,24,26,28,-1,30,32,34,36,38,40,42,44,46,48,50,-1,-1,52,-1,-1,-1,-1,-1,-1,-1,-1,-1,-1,-1,-1,-1,-1,-1,-1,-1,-1,-1,-1,-1,-1,-1,-1],"split_conditions":[1E0,4.948528E-1,-8.946142E-2,-5.84323E-1,-8.842792E-2,-2.0061605E-1,1.3342118E0,1E0,-1.24226406E-1,1.5402766E0,1.2150532E0,1E0,1.3342118E0,7.8628504E-1,8.108184E2,1E0,7.3433626E-1,-1.3664247E-1,7.3433626E-1,-5.430617E-1,-9.0395534E-1,7.018558E-1,1.5571004E0,-8.842792E-2,1E0,1E0,3.8743253E2,4.439544E2,-1.081721E0,-3.013162E2,-2.4235503E2,-2.4375676E2,1.4341594E2,-1.1794076E2,1.1143025E3,-2.0601878E2,-1.2513783E2,-1.7978435E2,-4.302397E1,8.037422E1,-1.9031479E1,3.761084E1,3.9087656E2,-1.5306418E2,-6.7685814E1,-2.6859385E1,7.2595726E1,7.3615265E1,1.8105717E2,2.7265353E2,1.2582635E2,3.8368597E2,6.6608496E2],"split_indices":[4,9,2,9,3,9,9,6,2,9,2,1,9,2,0,1,3,2,3,2,2,2,3,3,7,1,0,0,9,0,0,0,0,0,0,0,0,0,0,0,0,0,0,0,0,0,0,0,0,0,0,0,0],"split_type":[0,0,0,0,0,0,0,0,0,0,0,0,0,0,0,0,0,0,0,0,0,0,0,0,0,0,0,0,0,0,0,0,0,0,0,0,0,0,0,0,0,0,0,0,0,0,0,0,0,0,0,0,0],"sum_hessian":[8.5E2,6.83E2,1.67E2,4.42E2,2.41E2,8.1E1,8.6E1,2.34E2,2.08E2,1.21E2,1.2E2,4.4E1,3.7E1,7.3E1,1.3E1,1.79E2,5.5E1,1.09E2,9.9E1,7.6E1,4.5E1,1.06E2,1.4E1,2E1,2.4E1,3E1,7E0,4.3E1,3E1,8.5E1,9.4E1,4E1,1.5E1,1.07E2,2E0,5.4E1,4.5E1,2E1,5.6E1,8E0,3.7E1,8.8E1,1.8E1,9E0,5E0,9E0,1.1E1,1.8E1,6E0,1.7E1,1.3E1,7E0,2.3E1],"tree_param":{"num_deleted":"0","num_feature":"14","num_nodes":"53","size_leaf_vector":"1"}},{"base_weights":[9.491121E1,-6.452288E2,5.3603794E3,-1.4248765E3,3.196018E1,3.7773503E3,6.178211E3,-1.6538422E3,7.11395E2,-1.2962785E2,1.8791245E3,-1.0352051E1,4.102306E3,5.3045986E3,6.967956E3,-2.8522517E3,-1.3439883E3,4.2694055E2,1.9676924E3,-5.3538654E2,3.7341266E2,2.1145144E3,9.086406E2,2.1444466E2,-3.423711E1,3.2243271E3,5.188966E2,6.4732684E2,5.559517E3,1.2924982E3,6.139988E3,-3.1364008E2,-1.3832515E2,-2.2725794E1,-1.637606E2,9.402757E0,1.2890837E2,3.1845227E2,5.6314648E1,-3.903646E1,-1.7736546E2,-4.470292E1,1.1601076E2,1.6334738E2,6.8297455E2,-3.885241E1,1.405783E2,3.4155273E0,2.8751173E1,3.800599E2,1.446516E2,1.07226565E-1,9.69918E1,7.511025E2,4.7753848E2,4.267774E2,7.7276843E2],"categories":[],"categories_nodes":[],"categories_segments":[],"categories_sizes":[],"default_left":[0,0,0,0,0,0,0,0,0,0,0,0,0,0,0,0,0,0,0,0,0,0,0,0,0,0,0,0,0,0,0,0,0,0,0,0,0,0,0,0,0,0,0,0,0,0,0,0,0,0,0,0,0,0,0,0,0],"id":16,"left_children":[1,3,5,7,9,11,13,15,17,19,21,23,25,27,29,31,33,35,37,39,41,43,45,47,-1,49,-1,51,53,-1,55,-1,-1,-1,-1,-1,-1,-1,-1,-1,-1,-1,-1,-1,-1,-1,-1,-1,-1,-1,-1,-1,-1,-1,-1,-1,-1],"loss_changes":[3.2887844E9,3.9074246E8,1.113065E8,1.6943834E8,1.1874001E8,4.681427E7,9.263104E6,1.1165082E8,1.131013E7,7.49053E7,5.388816E6,3.7196684E5,1.6661312E7,3.9141184E7,7.847194E7,2.195872E7,8.127293E7,8.202332E6,8.461214E6,3.576157E7,1.0637034E8,4.554923E7,5.7051835E6,2.969961E4,0E0,1.7041456E7,0E0,6.243879E5,1.6160192E7,0E0,5.61952E7,0E0,0E0,0E0,0E0,0E0,0E0,0E0,0E0,0E0,0E0,0E0,0E0,0E0,0E0,0E0,0E0,0E0,0E0,0E0,0E0,0E0,0E0,0E0,0E0,0E0,0E0],"parents":[2147483647,0,0,1,1,2,2,3,3,4,4,5,5,6,6,7,7,8,8,9,9,10,10,11,11,12,12,13,13,14,14,15,15,16,16,17,17,18,18,19,19,20,20,21,21,22,22,23,23,25,25,27,27,28,28,30,30],"right_children":[2,4,6,8,10,12,14,16,18,20,22,24,26,28,30,32,34,36,38,40,42,44,46,48,-1,50,-1,52,54,-1,56,-1,-1,-1,-1,-1,-1,-1,-1,-1,-1,-1,-1,-1,-1,-1,-1,-1,-1,-1,-1,-1,-1,-1,-1,-1,-1],"split_conditions":[1.7416782E0,-2.5378522E-2,-5.9406996E-1,1E0,1E0,-3.410937E-1,6.182543E-1,-1.3760208E0,1E0,9.698315E-1,-7.342691E-1,-3.5764843E-1,8.3843255E-1,-3.8081068E-1,-3.8081068E-1,1.2779613E0,-9.0726626E-1,-5.298179E-1,-1.3049343E0,1.0428838E0,1.2243942E-1,-7.715173E-1,-6.5232307E-1,-1.091675E0,-3.423711E1,-9.4950217E-1,5.188966E2,-5.2298355E-1,-2.655336E-2,1.2924982E3,6.143994E-1,-3.1364008E2,-1.3832515E2,-2.2725794E1,-1.637606E2,9.402757E0,1.2890837E2,3.1845227E2,5.6314648E1,-3.903646E1,-1.7736546E2,-4.470292E1,1.1601076E2,1.6334738E2,6.8297455E2,-3.885241E1,1.405783E2,3.4155273E0,2.8751173E1,3.800599E2,1.446516E2,1.07226565E-1,9.69918E1,7.511025E2,4.7753848E2,4.267774E2,7.7276843E2],"split_indices":[12,0,0,4,4,2,2,0,7,0,2,2,2,0,0,2,2,2,0,2,2,2,2,0,0,0,0,0,2,0,0,0,0,0,0,0,0,0,0,0,0,0,0,0,0,0,0,0,0,0,0,0,0,0,0,0,0],"split_type":[0,0,0,0,0,0,0,0,0,0,0,0,0,0,0,0,0,0,0,0,0,0,0,0,0,0,0,0,0,0,0,0,0,0,0,0,0,0,0,0,0,0,0,0,0,0,0,0,0,0,0,0,0,0,0,0,0],"sum_hessian":[8.42E2,7.39E2,1.03E2,3.43E2,3.96E2,3.7E1,6.6E1,3.1E2,3.3E1,3.65E2,3.1E1,3E0,3.4E1,3.5E1,3.1E1,6.2E1,2.48E2,2.8E1,5E0,2.02E2,1.63E2,2.4E1,7E0,2E0,1E0,2.1E1,1.3E1,2E0,3.3E1,2E0,2.9E1,5.1E1,1.1E1,5.2E1,1.96E2,2.1E1,7E0,2E0,3E0,1.82E2,2E1,8E1,8.3E1,2.3E1,1E0,2E0,5E0,1E0,1E0,1.5E1,6E0,1E0,1E0,7E0,2.6E1,1.5E1,1.4E1],"tree_param":{"num_deleted":"0","num_feature":"14","num_nodes":"57","size_leaf_vector":"1"}},{"base_weights":[6.763408E1,-7.7898315E2,3.3077458E3,-1.356699E3,-7.392344E1,1.4101725E3,5.1041904E3,-1.9368634E3,-9.402261E2,-2.9315564E2,1.2482874E3,8.524138E2,2.0604863E3,3.105239E2,5.602403E3,6.150677E2,-2.0099904E3,-1.3264832E3,2.6543668E2,-7.274329E2,1.6394698E2,8.421766E2,9.152471E2,6.6193896E2,1.7220457E3,1.4740181E3,2.8114082E3,8.981277E3,5.3170605E3,-2.5740854E2,3.599198E2,-2.0848596E2,1.093923E1,6.020029E0,-1.4883586E2,1.4644798E2,-1.4906914E2,-1.0114261E2,5.3987453E1,4.6625134E1,-9.729674E1,1.0546623E1,2.6751636E2,1.2521007E1,8.0898125E1,4.3502515E2,1.2093522E1,5.326343E0,2.0559016E2,6.488258E2,2.1337346E2,1.8862968E2,1.0717505E3,4.4029233E2,6.5892426E2],"categories":[],"categories_nodes":[],"categories_segments":[],"categories_sizes":[],"default_left":[0,0,0,0,0,0,0,0,0,0,0,0,0,0,0,0,0,0,0,0,0,0,0,0,0,0,0,0,0,0,0,0,0,0,0,0,0,0,0,0,0,0,0,0,0,0,0,0,0,0,0,0,0,0,0],"id":17,"left_children":[1,3,5,7,9,11,13,15,17,19,21,23,25,-1,27,29,31,33,35,37,39,41,-1,43,45,47,49,51,53,-1,-1,-1,-1,-1,-1,-1,-1,-1,-1,-1,-1,-1,-1,-1,-1,-1,-1,-1,-1,-1,-1,-1,-1,-1,-1],"loss_changes":[2.3040666E9,2.7117763E8,5.859484E8,8.66128E7,8.761717E7,2.9437392E7,7.123866E7,2.9601728E7,1.0047669E8,5.153317E7,1.303209E8,6.810976E6,1.3031216E7,0E0,1.9735296E7,5.6848876E7,2.3712192E7,3.667824E7,1.13783784E8,4.841363E7,4.41028E7,5.643384E7,0E0,3.134502E6,3.3138282E7,1.9731616E7,2.6023056E7,2.90576E7,4.89056E7,0E0,0E0,0E0,0E0,0E0,0E0,0E0,0E0,0E0,0E0,0E0,0E0,0E0,0E0,0E0,0E0,0E0,0E0,0E0,0E0,0E0,0E0,0E0,0E0,0E0,0E0],"parents":[2147483647,0,0,1,1,2,2,3,3,4,4,5,5,6,6,7,7,8,8,9,9,10,10,11,11,12,12,14,14,15,15,16,16,17,17,18,18,19,19,20,20,21,21,23,23,24,24,25,25,26,26,27,27,28,28],"right_children":[2,4,6,8,10,12,14,16,18,20,22,24,26,-1,28,30,32,34,36,38,40,42,-1,44,46,48,50,52,54,-1,-1,-1,-1,-1,-1,-1,-1,-1,-1,-1,-1,-1,-1,-1,-1,-1,-1,-1,-1,-1,-1,-1,-1,-1,-1],"split_conditions":[6.152672E-1,2.5896722E-1,-8.946142E-2,-8.842792E-2,1.538523E0,4.570791E-2,-1.1627614E0,-1.9137952E0,1E0,1E0,2.3798647E0,-3.410937E-1,-7.715173E-1,3.105239E2,-2.655336E-2,-2.1025195E0,1.7820535E0,-1.3049343E0,-2.3863782E-1,9.5017713E-1,8.9554644E-1,-8.842792E-2,9.152471E2,-1.4577118E0,-3.2536668E-1,3.3005363E-1,-7.342691E-1,-5.8007393E-2,8.2765865E-1,-2.5740854E2,3.599198E2,-2.0848596E2,1.093923E1,6.020029E0,-1.4883586E2,1.4644798E2,-1.4906914E2,-1.0114261E2,5.3987453E1,4.6625134E1,-9.729674E1,1.0546623E1,2.6751636E2,1.2521007E1,8.0898125E1,4.3502515E2,1.2093522E1,5.326343E0,2.0559016E2,6.488258E2,2.1337346E2,1.8862968E2,1.0717505E3,4.4029233E2,6.5892426E2],"split_indices":[13,0,2,3,0,0,0,2,5,1,3,2,2,0,2,2,2,0,0,2,2,3,0,2,2,0,2,2,0,0,0,0,0,0,0,0,0,0,0,0,0,0,0,0,0,0,0,0,0,0,0,0,0,0,0],"split_type":[0,0,0,0,0,0,0,0,0,0,0,0,0,0,0,0,0,0,0,0,0,0,0,0,0,0,0,0,0,0,0,0,0,0,0,0,0,0,0,0,0,0,0,0,0,0,0,0,0,0,0,0,0,0,0],"sum_hessian":[8.38E2,6.65E2,1.73E2,3.65E2,3E2,8.5E1,8.8E1,1.51E2,2.14E2,2.58E2,4.2E1,4.7E1,3.8E1,1.9E1,6.9E1,4E0,1.47E2,1.62E2,5.2E1,1.32E2,1.26E2,4.1E1,1E0,4E1,7E0,2.3E1,1.5E1,3E0,6.6E1,2E0,2E0,1.42E2,5E0,1.7E1,1.45E2,3.1E1,2.1E1,1.08E2,2.4E1,1E2,2.6E1,3E1,1.1E1,9E0,3.1E1,2E0,5E0,7E0,1.6E1,1E0,1.4E1,1E0,2E0,4.1E1,2.5E1],"tree_param":{"num_deleted":"0","num_feature":"14","num_nodes":"55","size_leaf_vector":"1"}},{"base_weights":[-1.908199E1,-6.706412E2,3.2118843E3,-1.1823365E3,2.4272649E2,1.2155801E3,5.008324E3,-1.2830427E3,9.8879407E2,4.4116327E2,-1.0834335E3,9.542341E2,2.288079E2,4.275487E3,6.1119204E3,-1.5345851E3,-8.991908E2,1.18906456E2,2.387498E2,1.7992151E2,2.28209E3,-1.4001799E3,1.033732E3,4.8709854E2,1.7540872E3,7.3432505E3,3.8396133E3,2.7283185E2,6.40882E2,-1.8481548E2,-1.1896734E2,-1.0951345E2,1.8262182E1,-2.1894016E1,3.9965893E1,-4.061238E1,7.191564E1,-1.3487815E1,4.3857877E2,-1.766282E2,-8.556147E1,2.6906308E2,-9.6774414E1,-2.1612576E1,8.199761E1,1.1851115E2,4.7729044E2,2.2357454E2,1.0003005E3,2.9780115E2,5.534731E2],"categories":[],"categories_nodes":[],"categories_segments":[],"categories_sizes":[],"default_left":[0,0,0,0,0,0,0,0,0,0,0,0,0,0,0,0,0,0,0,0,0,0,0,0,0,0,0,0,0,0,0,0,0,0,0,0,0,0,0,0,0,0,0,0,0,0,0,0,0,0,0],"id":18,"left_children":[1,3,5,7,9,11,13,15,17,19,21,23,-1,25,27,29,31,33,-1,35,37,39,41,43,45,47,49,-1,-1,-1,-1,-1,-1,-1,-1,-1,-1,-1,-1,-1,-1,-1,-1,-1,-1,-1,-1,-1,-1,-1,-1],"loss_changes":[1.818912E9,3.3632317E8,5.139168E8,1.0206451E8,6.863614E7,1.7437168E7,3.5334144E7,4.120083E7,2.5267134E7,1.082789E8,2.4247968E7,2.0816696E7,0E0,3.732544E7,1.06432E7,2.646208E7,3.771947E7,1.4154191E6,0E0,6.3179264E7,1.4295949E8,4.46974E6,1.9185058E7,9.072545E6,3.0413884E7,4.555936E7,4.924077E7,0E0,0E0,0E0,0E0,0E0,0E0,0E0,0E0,0E0,0E0,0E0,0E0,0E0,0E0,0E0,0E0,0E0,0E0,0E0,0E0,0E0,0E0,0E0,0E0],"parents":[2147483647,0,0,1,1,2,2,3,3,4,4,5,5,6,6,7,7,8,8,9,9,10,10,11,11,13,13,14,14,15,15,16,16,17,17,19,19,20,20,21,21,22,22,23,23,24,24,25,25,26,26],"right_children":[2,4,6,8,10,12,14,16,18,20,22,24,-1,26,28,30,32,34,-1,36,38,40,42,44,46,48,50,-1,-1,-1,-1,-1,-1,-1,-1,-1,-1,-1,-1,-1,-1,-1,-1,-1,-1,-1,-1,-1,-1,-1,-1],"split_conditions":[7.358636E-1,5.4331297E-1,-1.8111545E-1,1E0,1.2579232E0,8.987451E-1,8.895772E-1,-3.8081068E-1,-3.081639E-1,9.085454E-1,1E0,1E0,2.288079E2,-1.210463E-1,-1.1627614E0,1E0,6.587193E-1,-7.5325996E-1,2.387498E2,1E0,-8.842792E-2,1E0,1.7249529E0,-8.842792E-2,3.3005363E-1,-1.5117532E-1,8.2765865E-1,2.7283185E2,6.40882E2,-1.8481548E2,-1.1896734E2,-1.0951345E2,1.8262182E1,-2.1894016E1,3.9965893E1,-4.061238E1,7.191564E1,-1.3487815E1,4.3857877E2,-1.766282E2,-8.556147E1,2.6906308E2,-9.6774414E1,-2.1612576E1,8.199761E1,1.1851115E2,4.7729044E2,2.2357454E2,1.0003005E3,2.9780115E2,5.534731E2],"split_indices":[13,0,10,4,10,0,10,0,10,10,5,5,0,10,0,1,10,10,0,1,3,1,10,3,0,10,0,0,0,0,0,0,0,0,0,0,0,0,0,0,0,0,0,0,0,0,0,0,0,0,0],"split_type":[0,0,0,0,0,0,0,0,0,0,0,0,0,0,0,0,0,0,0,0,0,0,0,0,0,0,0,0,0,0,0,0,0,0,0,0,0,0,0,0,0,0,0,0,0,0,0,0,0,0,0],"sum_hessian":[8.62E2,7.18E2,1.44E2,4.6E2,2.58E2,6.9E1,7.5E1,4.4E2,2E1,2.25E2,3.3E1,5.7E1,1.2E1,4.8E1,2.7E1,2.64E2,1.76E2,1.3E1,7E0,1.98E2,2.7E1,2.9E1,4E0,3.7E1,2E1,4E0,4.4E1,3E0,2.4E1,1.36E2,1.28E2,1.49E2,2.7E1,6E0,7E0,9.5E1,1.03E2,1.3E1,1.4E1,1.6E1,1.3E1,2E0,2E0,1.2E1,2.5E1,1.8E1,2E0,2E0,2E0,3.1E1,1.3E1],"tree_param":{"num_deleted":"0","num_feature":"14","num_nodes":"51","size_leaf_vector":"1"}},{"base_weights":[6.30489E1,-5.99703E2,3.5776216E3,-8.2942786E2,-1.5080876E1,1.7745925E3,4.2916167E3,-9.182114E2,4.924845E2,1.2228031E3,-4.7191672E2,6.122846E2,1.5061028E3,2.9566384E3,4.8536274E3,-2.346365E3,-8.182314E2,2.5629016E3,2.0001273E2,7.0594E2,6.2502466E3,-6.795428E2,6.377834E2,1.1472338E3,2.9827563E2,2.4724486E2,4.5620215E2,7.842201E3,4.586835E3,-2.4196342E2,-7.414551E0,-1.01151375E2,-2.2245022E1,3.8459378E2,-6.4310356E1,-8.133465E1,6.054773E1,1.5038585E2,-1.3093213E2,8.285262E2,-9.449072E1,-8.72065E1,3.24595E1,1.8817783E2,-3.8519707E1,8.07665E1,2.1074278E2,1.1047487E3,3.0912775E2,3.4554327E2,5.288485E2],"categories":[],"categories_nodes":[],"categories_segments":[],"categories_sizes":[],"default_left":[0,0,0,0,0,0,0,0,0,0,0,0,0,0,0,0,0,0,0,0,0,0,0,0,0,0,0,0,0,0,0,0,0,0,0,0,0,0,0,0,0,0,0,0,0,0,0,0,0,0,0],"id":19,"left_children":[1,3,5,7,9,11,13,15,17,19,21,-1,23,25,27,29,31,33,35,37,39,41,43,45,-1,-1,-1,47,49,-1,-1,-1,-1,-1,-1,-1,-1,-1,-1,-1,-1,-1,-1,-1,-1,-1,-1,-1,-1,-1,-1],"loss_changes":[1.9820417E9,9.614789E7,1.661769E8,6.0777344E7,1.1537555E8,3.747681E7,5.767565E7,6.6903424E7,1.9470158E7,1.3850522E8,3.47634E7,0E0,1.7245168E7,1.2817248E7,1.6652928E7,4.981568E6,5.1824544E7,1.8927018E7,1.2818899E7,8.397774E7,8.104005E7,2.4641232E7,3.1266832E7,9.057612E6,0E0,0E0,0E0,2.6761408E7,3.1738496E7,0E0,0E0,0E0,0E0,0E0,0E0,0E0,0E0,0E0,0E0,0E0,0E0,0E0,0E0,0E0,0E0,0E0,0E0,0E0,0E0,0E0,0E0],"parents":[2147483647,0,0,1,1,2,2,3,3,4,4,5,5,6,6,7,7,8,8,9,9,10,10,12,12,13,13,14,14,15,15,16,16,17,17,18,18,19,19,20,20,21,21,22,22,23,23,27,27,28,28],"right_children":[2,4,6,8,10,12,14,16,18,20,22,-1,24,26,28,30,32,34,36,38,40,42,44,46,-1,-1,-1,48,50,-1,-1,-1,-1,-1,-1,-1,-1,-1,-1,-1,-1,-1,-1,-1,-1,-1,-1,-1,-1,-1,-1],"split_conditions":[1.5614635E0,6.689421E-1,-1.685321E-1,7.358636E-1,-5.7471234E-1,-7.5325996E-1,-8.5522723E-1,-1.3295404E0,-1.1598835E0,-6.611964E-1,1.862697E0,6.122846E2,1.436356E0,1.7017483E0,-1.210463E-1,1E0,1E0,1E0,-8.842792E-2,-8.303298E-1,1E0,1.5571004E0,1.9737234E0,1E0,2.9827563E2,2.4724486E2,4.5620215E2,-8.842792E-2,2.2297597E0,-2.4196342E2,-7.414551E0,-1.01151375E2,-2.2245022E1,3.8459378E2,-6.4310356E1,-8.133465E1,6.054773E1,1.5038585E2,-1.3093213E2,8.285262E2,-9.449072E1,-8.72065E1,3.24595E1,1.8817783E2,-3.8519707E1,8.07665E1,2.1074278E2,1.1047487E3,3.0912775E2,3.4554327E2,5.288485E2],"split_indices":[12,9,10,13,10,10,9,10,9,10,9,0,9,10,10,4,5,6,3,10,6,3,9,5,0,0,0,3,12,0,0,0,0,0,0,0,0,0,0,0,0,0,0,0,0,0,0,0,0,0,0],"split_type":[0,0,0,0,0,0,0,0,0,0,0,0,0,0,0,0,0,0,0,0,0,0,0,0,0,0,0,0,0,0,0,0,0,0,0,0,0,0,0,0,0,0,0,0,0,0,0,0,0,0,0],"sum_hessian":[8.49E2,7.15E2,1.34E2,5.13E2,2.02E2,3.9E1,9.5E1,4.81E2,3.2E1,5.4E1,1.48E2,1E0,3.8E1,3E1,6.5E1,3E1,4.51E2,3E0,2.9E1,5E1,4E0,1.25E2,2.3E1,3.2E1,6E0,2.5E1,5E0,3E0,6.2E1,2.9E1,1E0,3.4E2,1.11E2,2E0,1E0,8E0,2.1E1,3.6E1,1.4E1,3E0,1E0,1.05E2,2E1,1E1,1.3E1,2.5E1,7E0,1E0,2E0,2.6E1,3.6E1],"tree_param":{"num_deleted":"0","num_feature":"14","num_nodes":"51","size_leaf_vector":"1"}},{"base_weights":[1.0878519E2,-4.0274435E2,3.3049382E3,-1.1309977E3,-2.3060452E1,2.7306194E3,4.798983E3,-1.6722406E3,-6.057885E2,-1.2976952E2,1.4715652E3,2.1935405E3,4.876275E3,1.9341728E2,5.3857025E2,-2.153247E3,-3.6010208E2,-8.2173365E-1,-2.1022637E3,-3.0395978E2,8.337848E2,1.7514999E3,5.304616E2,2.4452156E3,1.3495576E3,9.0062695E2,4.0552583E3,-2.4959366E2,-1.2358119E2,-1.4393213E2,2.1254053E2,-2.7654394E1,5.017487E2,-2.4734903E2,1.6715352E2,-5.49529E1,8.739642E0,5.987628E1,8.6426605E2,1.2703546E2,4.8564468E2,-2.0422949E1,9.318454E1,1.8385727E2,2.855566E2,-1.651919E1,1.6438977E2,8.403464E1,4.4545068E2],"categories":[],"categories_nodes":[],"categories_segments":[],"categories_sizes":[],"default_left":[0,0,0,0,0,0,0,0,0,0,0,0,0,0,0,0,0,0,0,0,0,0,0,0,0,0,0,0,0,0,0,0,0,0,0,0,0,0,0,0,0,0,0,0,0,0,0,0,0],"id":20,"left_children":[1,3,5,7,9,11,13,15,17,19,21,23,25,-1,-1,27,29,31,33,35,37,39,41,43,45,-1,47,-1,-1,-1,-1,-1,-1,-1,-1,-1,-1,-1,-1,-1,-1,-1,-1,-1,-1,-1,-1,-1,-1],"loss_changes":[1.4220823E9,2.0735344E8,8.986278E7,7.204323E7,7.8979064E7,9.186611E7,4.336992E7,7.874915E7,1.19500216E8,7.779634E7,7.764664E6,1.220592E7,2.1120768E7,0E0,0E0,2.5839872E7,9.694339E7,1.3283518E8,5.7370016E7,3.7721212E7,1.2512834E8,3.1178848E7,2.844348E6,8.441312E6,8.742736E6,0E0,1.6793472E7,0E0,0E0,0E0,0E0,0E0,0E0,0E0,0E0,0E0,0E0,0E0,0E0,0E0,0E0,0E0,0E0,0E0,0E0,0E0,0E0,0E0,0E0],"parents":[2147483647,0,0,1,1,2,2,3,3,4,4,5,5,6,6,7,7,8,8,9,9,10,10,11,11,12,12,15,15,16,16,17,17,18,18,19,19,20,20,21,21,22,22,23,23,24,24,26,26],"right_children":[2,4,6,8,10,12,14,16,18,20,22,24,26,-1,-1,28,30,32,34,36,38,40,42,44,46,-1,48,-1,-1,-1,-1,-1,-1,-1,-1,-1,-1,-1,-1,-1,-1,-1,-1,-1,-1,-1,-1,-1,-1],"split_conditions":[1.7266604E0,-4.518971E-1,8.987451E-1,1E0,1.6403368E0,1.247335E0,5.208172E-2,-8.073293E-1,3.6662203E-1,1.3963501E0,-7.0281506E-1,1E0,1.259751E0,1.9341728E2,5.3857025E2,1E0,4.2208046E-1,2.7225995E-1,1.7820535E0,7.3433626E-1,2.3798647E0,-7.715173E-1,-6.5232307E-1,-8.842792E-2,-1.2091546E-1,9.0062695E2,1.3309364E0,-2.4959366E2,-1.2358119E2,-1.4393213E2,2.1254053E2,-2.7654394E1,5.017487E2,-2.4734903E2,1.6715352E2,-5.49529E1,8.739642E0,5.987628E1,8.6426605E2,1.2703546E2,4.8564468E2,-2.0422949E1,9.318454E1,1.8385727E2,2.855566E2,-1.651919E1,1.6438977E2,8.403464E1,4.4545068E2],"split_indices":[12,0,0,1,13,2,2,0,2,0,2,7,2,0,0,5,2,2,2,3,3,2,2,3,2,0,2,0,0,0,0,0,0,0,0,0,0,0,0,0,0,0,0,0,0,0,0,0,0],"split_type":[0,0,0,0,0,0,0,0,0,0,0,0,0,0,0,0,0,0,0,0,0,0,0,0,0,0,0,0,0,0,0,0,0,0,0,0,0,0,0,0,0,0,0,0,0,0,0,0,0],"sum_hessian":[8.68E2,7.49E2,1.19E2,2.56E2,4.93E2,8.8E1,3.1E1,1.25E2,1.31E2,4.61E2,3.2E1,7.2E1,1.6E1,6E0,2.5E1,9.1E1,3.4E1,9.4E1,3.7E1,3.91E2,7E1,2.4E1,8E0,5.4E1,1.8E1,1E0,1.5E1,6.5E1,2.6E1,2.4E1,1E1,9E1,4E0,3.4E1,3E0,2.4E2,1.51E2,6.9E1,1E0,2.2E1,2E0,3E0,5E0,2.4E1,3E1,3E0,1.5E1,2E0,1.3E1],"tree_param":{"num_deleted":"0","num_feature":"14","num_nodes":"49","size_leaf_vector":"1"}},{"base_weights":[5.8965305E1,-5.2911566E2,2.5687075E3,-8.367269E2,2.177346E2,1.3239275E3,3.577483E3,-6.058852E2,-1.5549819E3,1.1287324E3,-9.128891E1,8.345788E2,1.859338E3,2.6347083E3,4.1859346E3,-1.1381316E3,-1.24086235E2,-2.1482546E3,-9.653355E2,-1.158259E3,2.844468E3,-3.694628E2,6.843967E2,1.0172711E3,-4.0067154E2,2.4313171E3,1.2497073E3,2.8717144E3,4.9612656E2,8.200962E3,3.781014E3,-6.68819E1,-1.555395E2,3.8659326E2,-3.1144794E1,-2.1784744E2,-1.9776173E1,-3.2836575E1,-1.6338245E2,-1.2664553E2,6.1103027E1,4.5356638E2,1.2843974E2,-8.80767E1,9.682781E1,-6.1694122E1,2.2236797E2,7.482196E1,2.9826285E2,-7.489278E1,-3.9311523E0,4.7405588E2,1.0740868E2,1.0104663E1,1.9113388E2,2.5781348E2,6.279918E2,7.365283E1,-2.3274023E1,1.0742832E3,2.8767578E1,7.2275745E2,3.4072424E2],"categories":[],"categories_nodes":[],"categories_segments":[],"categories_sizes":[],"default_left":[0,0,0,0,0,0,0,0,0,0,0,0,0,0,0,0,0,0,0,0,0,0,0,0,0,0,0,0,0,0,0,0,0,0,0,0,0,0,0,0,0,0,0,0,0,0,0,0,0,0,0,0,0,0,0,0,0,0,0,0,0,0,0],"id":21,"left_children":[1,3,5,7,9,11,13,15,17,19,21,23,25,27,29,31,33,35,37,39,41,43,45,47,49,51,53,55,57,59,61,-1,-1,-1,-1,-1,-1,-1,-1,-1,-1,-1,-1,-1,-1,-1,-1,-1,-1,-1,-1,-1,-1,-1,-1,-1,-1,-1,-1,-1,-1,-1,-1],"loss_changes":[1.2750881E9,1.6099987E8,2.011991E8,8.129626E7,5.781459E7,1.8098416E7,4.0598144E7,9.653507E7,3.990477E7,2.0733603E8,3.3482284E7,9.660094E6,9.165936E6,1.7835856E7,5.515776E7,3.401275E7,1.499718E8,3.046784E6,2.5863548E7,5.176746E6,7.332594E7,7.8827976E7,8.35001E7,1.68045E7,7.256338E5,4.818917E7,1.4246676E7,1.7829152E7,1.047524E6,7.736771E7,3.978515E7,0E0,0E0,0E0,0E0,0E0,0E0,0E0,0E0,0E0,0E0,0E0,0E0,0E0,0E0,0E0,0E0,0E0,0E0,0E0,0E0,0E0,0E0,0E0,0E0,0E0,0E0,0E0,0E0,0E0,0E0,0E0,0E0],"parents":[2147483647,0,0,1,1,2,2,3,3,4,4,5,5,6,6,7,7,8,8,9,9,10,10,11,11,12,12,13,13,14,14,15,15,16,16,17,17,18,18,19,19,20,20,21,21,22,22,23,23,24,24,25,25,26,26,27,27,28,28,29,29,30,30],"right_children":[2,4,6,8,10,12,14,16,18,20,22,24,26,28,30,32,34,36,38,40,42,44,46,48,50,52,54,56,58,60,62,-1,-1,-1,-1,-1,-1,-1,-1,-1,-1,-1,-1,-1,-1,-1,-1,-1,-1,-1,-1,-1,-1,-1,-1,-1,-1,-1,-1,-1,-1,-1,-1],"split_conditions":[1.223561E0,7.5657225E-1,-1.8111545E-1,1E0,-5.7471234E-1,4.570791E-2,-5.9406996E-1,-2.4662858E-1,-3.8081068E-1,-9.4274694E-1,1E0,-3.8390574E-1,1E0,-7.3624283E-1,-3.8081068E-1,-8.93256E-1,-2.1554697E-1,1E0,-2.139874E-1,1E0,1.1830908E0,9.974347E-1,1E0,-4.1383618E-1,-1.0205885E0,4.722265E-1,6.143994E-1,-8.073293E-1,1E0,1E0,-1.210463E-1,-6.68819E1,-1.555395E2,3.8659326E2,-3.1144794E1,-2.1784744E2,-1.9776173E1,-3.2836575E1,-1.6338245E2,-1.2664553E2,6.1103027E1,4.5356638E2,1.2843974E2,-8.80767E1,9.682781E1,-6.1694122E1,2.2236797E2,7.482196E1,2.9826285E2,-7.489278E1,-3.9311523E0,4.7405588E2,1.0740868E2,1.0104663E1,1.9113388E2,2.5781348E2,6.279918E2,7.365283E1,-2.3274023E1,1.0742832E3,2.8767578E1,7.2275745E2,3.4072424E2],"split_indices":[12,0,10,8,10,0,0,10,0,10,7,10,1,0,0,10,10,4,10,4,0,10,1,10,0,0,0,0,7,8,10,0,0,0,0,0,0,0,0,0,0,0,0,0,0,0,0,0,0,0,0,0,0,0,0,0,0,0,0,0,0,0,0],"split_type":[0,0,0,0,0,0,0,0,0,0,0,0,0,0,0,0,0,0,0,0,0,0,0,0,0,0,0,0,0,0,0,0,0,0,0,0,0,0,0,0,0,0,0,0,0,0,0,0,0,0,0,0,0,0,0,0,0,0,0,0,0,0,0],"sum_hessian":[8.62E2,6.99E2,1.63E2,4.95E2,2.04E2,7.4E1,8.9E1,3.76E2,1.19E2,5.1E1,1.53E2,4E1,3.4E1,3.7E1,5.2E1,1.78E2,1.98E2,5.8E1,6.1E1,2.2E1,2.9E1,1.13E2,4E1,3.5E1,5E0,1.6E1,1.8E1,3.3E1,4E0,3E0,4.9E1,8.5E1,9.3E1,8E0,1.9E2,5.7E1,1E0,3.2E1,2.9E1,2.1E1,1E0,1.3E1,1.6E1,8.2E1,3.1E1,2.2E1,1.8E1,3.2E1,3E0,2E0,3E0,5E0,1.1E1,7E0,1.1E1,3.2E1,1E0,3E0,1E0,2E0,1E0,3E0,4.6E1],"tree_param":{"num_deleted":"0","num_feature":"14","num_nodes":"63","size_leaf_vector":"1"}},{"base_weights":[1.3429836E2,-2.497539E2,3.4364946E3,-3.5569437E2,1.2553583E3,2.2208513E3,3.9381587E3,-6.2299854E2,-1.830321E1,1.039183E3,2.4348372E2,1.5941273E3,2.5326065E2,6.5576284E3,3.5331687E3,-1.3850902E3,-5.4738574E2,-1.139267E3,1.17394554E2,6.509871E2,1.365319E3,4.3516212E1,1.6599277E2,5.768464E1,8.834572E3,1.9863068E3,4.0129192E3,-1.5740263E2,6.3330665E0,1.22526054E2,-5.9618996E1,-1.393253E2,-3.9037533E1,7.6182837E2,6.339751E0,1.4203763E2,-4.143174E1,2.3652515E2,8.732692E1,1.0502943E3,1.080543E2,2.2795508E2,6.0999805E1,7.382008E2,3.650863E2],"categories":[],"categories_nodes":[],"categories_segments":[],"categories_sizes":[],"default_left":[0,0,0,0,0,0,0,0,0,0,0,0,0,0,0,0,0,0,0,0,0,0,0,0,0,0,0,0,0,0,0,0,0,0,0,0,0,0,0,0,0,0,0,0,0],"id":22,"left_children":[1,3,5,7,9,11,13,15,17,19,-1,21,-1,23,25,27,29,31,33,35,37,-1,-1,-1,39,41,43,-1,-1,-1,-1,-1,-1,-1,-1,-1,-1,-1,-1,-1,-1,-1,-1,-1,-1],"loss_changes":[1.0712325E9,1.211519E8,4.4920256E7,6.384033E7,1.0218464E7,1.433456E6,4.154323E7,2.2003248E7,4.7896996E7,4.681796E6,0E0,1.92784E5,0E0,9.022909E7,3.2845056E7,9.677744E6,3.1961536E7,5.92318E6,1.1332929E8,1.8620428E7,9.25088E6,0E0,0E0,0E0,5.333411E7,4.663392E6,2.3061056E7,0E0,0E0,0E0,0E0,0E0,0E0,0E0,0E0,0E0,0E0,0E0,0E0,0E0,0E0,0E0,0E0,0E0,0E0],"parents":[2147483647,0,0,1,1,2,2,3,3,4,4,5,5,6,6,7,7,8,8,9,9,11,11,13,13,14,14,15,15,16,16,17,17,18,18,19,19,20,20,24,24,25,25,26,26],"right_children":[2,4,6,8,10,12,14,16,18,20,-1,22,-1,24,26,28,30,32,34,36,38,-1,-1,-1,40,42,44,-1,-1,-1,-1,-1,-1,-1,-1,-1,-1,-1,-1,-1,-1,-1,-1,-1,-1],"split_conditions":[1.8768393E0,1.4594421E0,-8.5522723E-1,9.071701E-2,1.436356E0,3.6662203E-1,-5.248129E-1,-1.4999264E0,-1.0695028E0,1.4713562E0,2.4348372E2,-1.2309403E0,2.5326065E2,7.8628504E-1,1.5219115E-2,8.6313164E-1,-1.4419848E0,1.233844E0,-1.0645365E0,-1.2532606E0,-7.342691E-1,4.3516212E1,1.6599277E2,5.768464E1,1.259751E0,1E0,-2.655336E-2,-1.5740263E2,6.3330665E0,1.22526054E2,-5.9618996E1,-1.393253E2,-3.9037533E1,7.6182837E2,6.339751E0,1.4203763E2,-4.143174E1,2.3652515E2,8.732692E1,1.0502943E3,1.080543E2,2.2795508E2,6.0999805E1,7.382008E2,3.650863E2],"split_indices":[12,13,9,9,9,2,9,2,2,12,0,9,0,2,9,12,2,9,2,2,2,0,0,0,2,7,2,0,0,0,0,0,0,0,0,0,0,0,0,0,0,0,0,0,0],"split_type":[0,0,0,0,0,0,0,0,0,0,0,0,0,0,0,0,0,0,0,0,0,0,0,0,0,0,0,0,0,0,0,0,0,0,0,0,0,0,0,0,0,0,0,0,0],"sum_hessian":[8.43E2,7.56E2,8.7E1,7.07E2,4.9E1,2.7E1,6E1,3.94E2,3.13E2,4.3E1,6E0,1.1E1,1.6E1,6E0,5.4E1,3.4E1,3.6E2,3.3E1,2.8E2,2.1E1,2.2E1,1E0,1E1,2E0,4E0,1.4E1,4E1,3E1,4E0,9E0,3.51E2,2.4E1,9E0,1E0,2.79E2,1.2E1,9E0,6E0,1.6E1,3E0,1E0,1.1E1,3E0,2E0,3.8E1],"tree_param":{"num_deleted":"0","num_feature":"14","num_nodes":"45","size_leaf_vector":"1"}},{"base_weights":[6.820826E1,-3.1003427E2,1.7580533E3,-5.14822E2,2.9699048E2,1.01822095E3,2.5829536E3,-9.393166E2,-2.3979538E2,2.127259E2,5.22578E3,2.2063765E3,8.850126E2,1.8923324E3,3.888503E3,-1.3880581E3,-6.744478E2,-5.306592E2,5.2881024E2,-9.620708E1,9.109786E2,-2.5750391E1,8.096174E2,8.267819E2,4.230107E3,-4.1742188E2,9.419168E2,1.161785E3,3.1671255E3,4.1902314E3,2.234657E2,-3.279591E1,-2.3108777E2,4.853984E2,-8.818918E1,1.0476702E1,-8.612636E1,1.6249234E2,-3.8057865E1,8.9885574E1,-4.7786633E1,9.8346967E2,5.6360054E1,1.7139708E2,-4.5305176E0,5.6456445E2,6.995156E1,1.5650977E1,-6.609023E1,8.165326E1,1.6085934E2,1.4067973E2,4.330758E1,2.1019087E2,3.653908E2,5.07368E2,2.7994153E2],"categories":[],"categories_nodes":[],"categories_segments":[],"categories_sizes":[],"default_left":[0,0,0,0,0,0,0,0,0,0,0,0,0,0,0,0,0,0,0,0,0,0,0,0,0,0,0,0,0,0,0,0,0,0,0,0,0,0,0,0,0,0,0,0,0,0,0,0,0,0,0,0,0,0,0,0,0],"id":23,"left_children":[1,3,5,7,9,11,13,15,17,19,21,23,25,27,29,31,33,35,37,39,41,-1,-1,43,45,47,49,51,53,55,-1,-1,-1,-1,-1,-1,-1,-1,-1,-1,-1,-1,-1,-1,-1,-1,-1,-1,-1,-1,-1,-1,-1,-1,-1,-1,-1],"loss_changes":[5.5918074E8,8.9035416E7,9.501603E7,6.2234576E7,7.406168E7,1.1658752E7,6.0264704E7,2.402392E7,7.316102E7,3.870032E7,4.930235E7,1.883804E7,6.248192E6,4.381661E7,3.111584E6,7.456973E7,1.579572E8,4.9877924E7,9.032979E7,4.790139E7,1.6495186E8,0E0,0E0,4.719887E6,1.104384E7,6.624023E5,5.039432E6,5.461208E6,1.653344E6,1.0370976E7,0E0,0E0,0E0,0E0,0E0,0E0,0E0,0E0,0E0,0E0,0E0,0E0,0E0,0E0,0E0,0E0,0E0,0E0,0E0,0E0,0E0,0E0,0E0,0E0,0E0,0E0,0E0],"parents":[2147483647,0,0,1,1,2,2,3,3,4,4,5,5,6,6,7,7,8,8,9,9,10,10,11,11,12,12,13,13,14,14,15,15,16,16,17,17,18,18,19,19,20,20,23,23,24,24,25,25,26,26,27,27,28,28,29,29],"right_children":[2,4,6,8,10,12,14,16,18,20,22,24,26,28,30,32,34,36,38,40,42,-1,-1,44,46,48,50,52,54,56,-1,-1,-1,-1,-1,-1,-1,-1,-1,-1,-1,-1,-1,-1,-1,-1,-1,-1,-1,-1,-1,-1,-1,-1,-1,-1,-1],"split_conditions":[1.2271179E0,8.987451E-1,5.208172E-2,-8.842792E-2,2.3798647E0,-1.2532606E0,8.2765865E-1,-4.9008647E-1,1E0,6.687463E-1,1.2541772E0,1.1679435E-1,-1.1853862E0,1.0826151E0,1E0,-1.19863E0,-4.8263684E-1,-4.1972876E-1,-2.3863782E-1,-7.715173E-1,7.283434E-1,-2.5750391E1,8.096174E2,1E0,4.722265E-1,-5.9406996E-1,9.698315E-1,7.8628504E-1,1.6057453E0,1E0,2.234657E2,-3.279591E1,-2.3108777E2,4.853984E2,-8.818918E1,1.0476702E1,-8.612636E1,1.6249234E2,-3.8057865E1,8.9885574E1,-4.7786633E1,9.8346967E2,5.6360054E1,1.7139708E2,-4.5305176E0,5.6456445E2,6.995156E1,1.5650977E1,-6.609023E1,8.165326E1,1.6085934E2,1.4067973E2,4.330758E1,2.1019087E2,3.653908E2,5.07368E2,2.7994153E2],"split_indices":[12,0,2,3,3,2,0,2,5,2,0,0,2,2,5,2,2,2,0,2,2,0,0,5,0,0,0,2,2,7,0,0,0,0,0,0,0,0,0,0,0,0,0,0,0,0,0,0,0,0,0,0,0,0,0,0,0],"split_type":[0,0,0,0,0,0,0,0,0,0,0,0,0,0,0,0,0,0,0,0,0,0,0,0,0,0,0,0,0,0,0,0,0,0,0,0,0,0,0,0,0,0,0,0,0,0,0,0,0,0,0,0,0,0,0,0,0],"sum_hessian":[8.73E2,7.14E2,1.59E2,5.34E2,1.8E2,8.5E1,7.4E1,2.09E2,3.25E2,1.78E2,2E0,7E0,7.8E1,5E1,2.4E1,7.6E1,1.33E2,2.36E2,8.9E1,1.24E2,5.4E1,1E0,1E0,5E0,2E0,3E0,7.5E1,3.3E1,1.7E1,1.9E1,5E0,3.6E1,4E1,4E0,1.29E2,8.1E1,1.55E2,4E1,4.9E1,3.4E1,9E1,1E0,5.3E1,2E0,3E0,1E0,1E0,1E0,2E0,6.5E1,1E1,2.4E1,9E0,7E0,1E1,1E1,9E0],"tree_param":{"num_deleted":"0","num_feature":"14","num_nodes":"57","size_leaf_vector":"1"}},{"base_weights":[-3.7068268E1,-4.4746976E2,2.2633762E3,-6.657066E2,2.8310144E2,1.6526815E3,3.080958E3,-1.0029004E3,-3.4269116E2,4.6749466E2,-6.4897546E2,9.7631665E2,2.5044202E3,8.0969727E2,2.8335432E3,-1.6082375E3,-6.066716E2,1.4783241E2,-6.881055E2,2.7288235E2,2.520619E3,-1.3564895E3,2.717322E2,1.8185403E2,1.2685571E3,4.6836655E3,1.619715E3,1.7260946E3,3.3537712E3,-1.8395357E2,-6.6973605E0,4.8825455E1,-9.934201E1,-3.355989E1,2.4198262E2,-3.6223785E1,-1.3333723E2,-9.212461E0,1.7949963E2,6.641292E2,1.5422585E2,-1.5715936E2,-5.689416E1,-1.1916497E2,1.05452965E2,-2.7155958E1,6.0928852E1,3.5946628E2,9.936614E1,6.698947E2,4.8982716E1,7.873441E1,2.6075192E2,1.03487785E2,5.067625E2,1.8646167E2,3.6594666E2],"categories":[],"categories_nodes":[],"categories_segments":[],"categories_sizes":[],"default_left":[0,0,0,0,0,0,0,0,0,0,0,0,0,0,0,0,0,0,0,0,0,0,0,0,0,0,0,0,0,0,0,0,0,0,0,0,0,0,0,0,0,0,0,0,0,0,0,0,0,0,0,0,0,0,0,0,0],"id":24,"left_children":[1,3,5,7,9,11,13,15,17,19,21,23,25,-1,27,29,31,33,35,37,39,41,43,45,47,49,51,53,55,-1,-1,-1,-1,-1,-1,-1,-1,-1,-1,-1,-1,-1,-1,-1,-1,-1,-1,-1,-1,-1,-1,-1,-1,-1,-1,-1,-1],"loss_changes":[8.0444685E8,1.1546181E8,5.931693E7,6.032408E7,2.900546E7,4.1337424E7,4.4072864E7,6.4264064E7,4.8559816E7,5.5251016E7,1.860818E7,9.984972E6,5.603747E7,0E0,2.474576E7,3.802141E7,7.077958E7,1.3151607E8,3.484264E7,7.1835464E7,3.8135464E7,1.816332E6,1.6148539E7,2.684918E6,1.6890092E7,7.278453E7,1.8502472E7,3.8640344E7,9.109472E6,0E0,0E0,0E0,0E0,0E0,0E0,0E0,0E0,0E0,0E0,0E0,0E0,0E0,0E0,0E0,0E0,0E0,0E0,0E0,0E0,0E0,0E0,0E0,0E0,0E0,0E0,0E0,0E0],"parents":[2147483647,0,0,1,1,2,2,3,3,4,4,5,5,6,6,7,7,8,8,9,9,10,10,11,11,12,12,14,14,15,15,16,16,17,17,18,18,19,19,20,20,21,21,22,22,23,23,24,24,25,25,26,26,27,27,28,28],"right_children":[2,4,6,8,10,12,14,16,18,20,22,24,26,-1,28,30,32,34,36,38,40,42,44,46,48,50,52,54,56,-1,-1,-1,-1,-1,-1,-1,-1,-1,-1,-1,-1,-1,-1,-1,-1,-1,-1,-1,-1,-1,-1,-1,-1,-1,-1,-1,-1],"split_conditions":[1.5646251E0,9.698315E-1,2.2297597E0,1E0,1.247335E0,4.570791E-2,6.521915E-1,-7.3624283E-1,-4.2386746E-1,1.0428838E0,1.5875351E0,-3.410937E-1,4.722265E-1,8.0969727E2,9.3362236E-1,7.846296E-1,-3.0972424E-1,-5.7286024E-1,1E0,1E0,1.0586108E0,1.7517823E0,1.2541772E0,-1.091675E0,-3.2536668E-1,1E0,1.3252637E0,1E0,-1.1627614E0,-1.8395357E2,-6.6973605E0,4.8825455E1,-9.934201E1,-3.355989E1,2.4198262E2,-3.6223785E1,-1.3333723E2,-9.212461E0,1.7949963E2,6.641292E2,1.5422585E2,-1.5715936E2,-5.689416E1,-1.1916497E2,1.05452965E2,-2.7155958E1,6.0928852E1,3.5946628E2,9.936614E1,6.698947E2,4.8982716E1,7.873441E1,2.6075192E2,1.03487785E2,5.067625E2,1.8646167E2,3.6594666E2],"split_indices":[12,0,12,1,2,0,2,0,2,2,2,2,0,0,2,2,0,2,7,7,2,0,0,0,2,1,0,6,0,0,0,0,0,0,0,0,0,0,0,0,0,0,0,0,0,0,0,0,0,0,0,0,0,0,0,0,0],"split_type":[0,0,0,0,0,0,0,0,0,0,0,0,0,0,0,0,0,0,0,0,0,0,0,0,0,0,0,0,0,0,0,0,0,0,0,0,0,0,0,0,0,0,0,0,0,0,0,0,0,0,0,0,0,0,0,0,0],"sum_hessian":[8.5E2,7.22E2,1.28E2,5.56E2,1.66E2,7.5E1,5.3E1,2.71E2,2.85E2,1.39E2,2.7E1,4.3E1,3.2E1,1E0,5.2E1,1.06E2,1.65E2,1.18E2,1.67E2,1.28E2,1.1E1,1.5E1,1.2E1,1.2E1,3.1E1,8E0,2.4E1,1.8E1,3.4E1,9.2E1,1.4E1,4.3E1,1.22E2,9.8E1,2E1,1.12E2,5.5E1,1.04E2,2.4E1,1E0,1E1,1.1E1,4E0,4E0,8E0,6E0,6E0,2E0,2.9E1,5E0,3E0,1.4E1,1E1,1.6E1,2E0,7E0,2.7E1],"tree_param":{"num_deleted":"0","num_feature":"14","num_nodes":"57","size_leaf_vector":"1"}},{"base_weights":[1.0045035E2,-2.0244412E2,2.4347622E3,-3.252024E2,9.08198E2,1.3733441E2,2.7518767E3,-1.3506786E3,-2.190516E2,2.536729E3,8.0789636E2,5.043466E3,2.554518E3,8.204741E2,-1.5452826E3,-1.16146614E2,-1.5252097E3,3.4751517E2,-1.3926953E1,6.4358734E2,1.923063E2,1.6510005E3,9.3066644E2,1.7969703E3,3.1156318E3,-2.6066526E1,3.1130856E2,-2.0620177E2,-8.373464E1,-2.046038E1,6.4851944E1,-2.4204283E2,-1.20930374E2,3.0246784E1,1.1909247E2,2.016933E2,2.7660156E1,1.09383255E2,3.304804E2,7.692125E2,2.801052E2],"categories":[],"categories_nodes":[],"categories_segments":[],"categories_sizes":[],"default_left":[0,0,0,0,0,0,0,0,0,0,0,0,0,0,0,0,0,0,0,0,0,0,0,0,0,0,0,0,0,0,0,0,0,0,0,0,0,0,0,0,0],"id":25,"left_children":[1,3,5,7,9,-1,11,13,15,17,19,21,23,25,27,29,31,-1,-1,33,-1,35,-1,37,39,-1,-1,-1,-1,-1,-1,-1,-1,-1,-1,-1,-1,-1,-1,-1,-1],"loss_changes":[6.1562656E8,1.0541388E8,2.9879808E7,7.5358424E7,1.05281E7,0E0,2.1488576E7,2.8731344E7,8.463568E7,1.0528852E7,1.2321504E7,5.6948456E7,2.5006368E7,1.5683268E7,2.0222304E7,3.9769852E7,1.0081984E7,0E0,0E0,1.1962476E7,0E0,1.453863E6,0E0,3.1372184E7,3.6040864E7,0E0,0E0,0E0,0E0,0E0,0E0,0E0,0E0,0E0,0E0,0E0,0E0,0E0,0E0,0E0,0E0],"parents":[2147483647,0,0,1,1,2,2,3,3,4,4,6,6,7,7,8,8,9,9,10,10,11,11,12,12,13,13,14,14,15,15,16,16,19,19,21,21,23,23,24,24],"right_children":[2,4,6,8,10,-1,12,14,16,18,20,22,24,26,28,30,32,-1,-1,34,-1,36,-1,38,40,-1,-1,-1,-1,-1,-1,-1,-1,-1,-1,-1,-1,-1,-1,-1,-1],"split_conditions":[1.8768393E0,7.358636E-1,-9.964527E-1,-1.3004416E0,-1.1598835E0,1.3733441E2,-2.655336E-2,-1.2309403E0,1.5329044E0,-9.867291E-1,1.436356E0,-4.3108113E-2,2.2297597E0,-1.4577118E0,-2.6900825E-1,1.5402766E0,-9.040788E-1,3.4751517E2,-1.3926953E1,1E0,1.923063E2,-4.6352637E-1,9.3066644E2,1.3342118E0,6.521915E-1,-2.6066526E1,3.1130856E2,-2.0620177E2,-8.373464E1,-2.046038E1,6.4851944E1,-2.4204283E2,-1.20930374E2,3.0246784E1,1.1909247E2,2.016933E2,2.7660156E1,1.09383255E2,3.304804E2,7.692125E2,2.801052E2],"split_indices":[12,13,9,2,9,0,2,9,2,2,9,2,12,2,9,9,9,0,0,5,0,9,0,9,2,0,0,0,0,0,0,0,0,0,0,0,0,0,0,0,0],"split_type":[0,0,0,0,0,0,0,0,0,0,0,0,0,0,0,0,0,0,0,0,0,0,0,0,0,0,0,0,0,0,0,0,0,0,0,0,0,0,0,0,0],"sum_hessian":[8.69E2,7.7E2,9.9E1,6.94E2,7.6E1,2.4E1,7.5E1,6.4E1,6.3E2,3E0,7.3E1,4E0,7.1E1,5E0,5.9E1,5.85E2,4.5E1,2E0,1E0,6.5E1,8E0,3E0,1E0,3.2E1,3.9E1,4E0,1E0,3.3E1,2.6E1,5.25E2,6E1,1E1,3.5E1,4.1E1,2.4E1,2E0,1E0,2.3E1,9E0,1E0,3.8E1],"tree_param":{"num_deleted":"0","num_feature":"14","num_nodes":"41","size_leaf_vector":"1"}},{"base_weights":[1.2839216E1,-3.517612E2,1.6812236E3,-1.1626924E3,-1.995429E2,1.0336086E3,2.1993467E3,-1.4021937E3,-2.560337E2,-3.8972046E2,2.2161601E2,1.219426E3,3.418744E2,8.84133E2,2.0105256E3,-1.0273579E3,-2.3277132E2,6.876182E3,-1.2169707E3,8.437052E2,-4.9867538E2,4.2850156E2,-7.2548846E2,1.01085034E3,6.1369696E2,-2.2055899E2,1.0965115E3,1.3029634E3,2.5633442E3,-1.2490437E2,6.358579E2,-1.0518517E2,1.1366125E3,-2.1068501E2,-1.3555951E1,2.0043991E2,-2.4741898E2,-3.478726E1,-9.639745E1,1.7652712E1,3.3114972E2,-1.5376653E2,-1.2069038E1,5.5047974E1,1.3728647E2,-5.0084896E1,1.5990079E1,-1.1336914E1,1.317053E2,9.3388E1,2.8040643E2,2.112061E2,5.751198E2],"categories":[],"categories_nodes":[],"categories_segments":[],"categories_sizes":[],"default_left":[0,0,0,0,0,0,0,0,0,0,0,0,0,0,0,0,0,0,0,0,0,0,0,0,0,0,0,0,0,0,0,0,0,0,0,0,0,0,0,0,0,0,0,0,0,0,0,0,0,0,0,0,0],"id":26,"left_children":[1,3,5,7,9,11,13,15,17,19,21,23,25,-1,27,29,-1,31,33,35,37,39,41,43,-1,45,47,49,51,-1,-1,-1,-1,-1,-1,-1,-1,-1,-1,-1,-1,-1,-1,-1,-1,-1,-1,-1,-1,-1,-1,-1,-1],"loss_changes":[5.1216634E8,8.506404E7,4.839392E7,2.3309904E7,4.6781736E7,8.452104E6,8.631834E7,2.7443536E7,1.7285475E8,5.444464E7,3.597236E7,4.9183176E7,7.0327745E6,0E0,2.8734656E7,1.1109563E8,0E0,1.1874474E8,2.088556E7,1.3204424E8,2.5626976E7,1.0838161E8,1.6024116E7,8.07728E6,0E0,1.1464766E6,2.017117E6,1.8434528E7,5.2591264E7,0E0,0E0,0E0,0E0,0E0,0E0,0E0,0E0,0E0,0E0,0E0,0E0,0E0,0E0,0E0,0E0,0E0,0E0,0E0,0E0,0E0,0E0,0E0,0E0],"parents":[2147483647,0,0,1,1,2,2,3,3,4,4,5,5,6,6,7,7,8,8,9,9,10,10,11,11,12,12,14,14,15,15,17,17,18,18,19,19,20,20,21,21,22,22,23,23,25,25,26,26,27,27,28,28],"right_children":[2,4,6,8,10,12,14,16,18,20,22,24,26,-1,28,30,-1,32,34,36,38,40,42,44,-1,46,48,50,52,-1,-1,-1,-1,-1,-1,-1,-1,-1,-1,-1,-1,-1,-1,-1,-1,-1,-1,-1,-1,-1,-1,-1,-1],"split_conditions":[1.290351E0,-1.1627614E0,-4.3108113E-2,7.680748E-1,8.987451E-1,-3.2536668E-1,-2.655336E-2,8.353575E-2,8.227055E-1,-1.0205885E0,1.1504897E0,-3.410937E-1,1E0,8.84133E2,2.2297597E0,3.6354702E-2,-2.3277132E2,-1.3760208E0,1.2779613E0,5.131316E-1,1E0,9.3362236E-1,1.2541772E0,-9.6464954E-2,6.1369696E2,7.3433626E-1,-2.6990825E-1,1.2541772E0,1E0,-1.2490437E2,6.358579E2,-1.0518517E2,1.1366125E3,-2.1068501E2,-1.3555951E1,2.0043991E2,-2.4741898E2,-3.478726E1,-9.639745E1,1.7652712E1,3.3114972E2,-1.5376653E2,-1.2069038E1,5.5047974E1,1.3728647E2,-5.0084896E1,1.5990079E1,-1.1336914E1,1.317053E2,9.3388E1,2.8040643E2,2.112061E2,5.751198E2],"split_indices":[12,0,2,2,0,2,2,2,2,0,2,2,1,0,12,2,0,0,2,2,8,2,0,0,0,3,2,0,6,0,0,0,0,0,0,0,0,0,0,0,0,0,0,0,0,0,0,0,0,0,0,0,0],"split_type":[0,0,0,0,0,0,0,0,0,0,0,0,0,0,0,0,0,0,0,0,0,0,0,0,0,0,0,0,0,0,0,0,0,0,0,0,0,0,0,0,0,0,0,0,0,0,0,0,0,0,0,0,0],"sum_hessian":[8.4E2,6.9E2,1.5E2,1.08E2,5.82E2,6.8E1,8.2E1,8.5E1,2.3E1,4.01E2,1.81E2,5.3E1,1.5E1,1E0,8.1E1,6.2E1,2.3E1,2E0,2.1E1,3.2E1,3.69E2,1.49E2,3.2E1,5.2E1,1E0,9E0,6E0,3.7E1,4.4E1,6.1E1,1E0,1E0,1E0,1.1E1,1E1,2.4E1,8E0,2.8E2,8.9E1,1.38E2,1.1E1,1.3E1,1.9E1,2.4E1,2.8E1,5E0,4E0,1E0,5E0,3.1E1,6E0,4E1,4E0],"tree_param":{"num_deleted":"0","num_feature":"14","num_nodes":"53","size_leaf_vector":"1"}},{"base_weights":[7.4347305E1,-2.4279143E2,1.4547194E3,-6.7507947E2,-1.7700682E1,8.5161945E2,2.2265833E3,-1.1435593E3,-1.8102774E2,-4.8807346E2,1.5821823E2,2.5208179E3,7.4710114E2,1.8327941E3,3.4410725E3,-1.6758132E3,-5.928609E2,2.768838E2,-1.3204823E3,-6.895087E2,1.315903E3,1.0404692E3,9.6756424E1,3.174961E2,3.8838672E3,5.6347327E2,1.8631212E3,1.2895503E3,2.532544E3,2.734483E3,7.019959E2,3.5849203E2,-1.9109196E2,-9.6644875E1,1.0442925E2,-1.19477615E2,8.097615E1,-1.6875302E2,1.854259E2,9.305922E1,-8.892323E1,-1.0543264E2,2.4864856E2,1.0072078E2,2.0330403E0,1.162207E0,4.6462208E1,5.284844E2,5.4095703E1,1.0521919E2,3.6141464E1,2.0353041E2,6.6813805E1,1.8104004E2,6.229971E1,3.4270563E2,1.245162E2,8.883602E1,3.32504E2],"categories":[],"categories_nodes":[],"categories_segments":[],"categories_sizes":[],"default_left":[0,0,0,0,0,0,0,0,0,0,0,0,0,0,0,0,0,0,0,0,0,0,0,0,0,0,0,0,0,0,0,0,0,0,0,0,0,0,0,0,0,0,0,0,0,0,0,0,0,0,0,0,0,0,0,0,0,0,0],"id":27,"left_children":[1,3,5,7,9,11,13,15,17,19,21,23,25,27,29,31,33,35,37,39,41,-1,43,45,47,49,51,53,55,57,-1,-1,-1,-1,-1,-1,-1,-1,-1,-1,-1,-1,-1,-1,-1,-1,-1,-1,-1,-1,-1,-1,-1,-1,-1,-1,-1,-1,-1],"loss_changes":[3.7727267E8,6.8198184E7,7.30511E7,5.534177E7,3.830655E7,1.4167188E7,2.7170912E7,3.5059184E7,6.193441E7,4.6693764E7,2.1122469E8,1.378307E7,1.6984232E7,1.7641568E7,2.1264912E7,8.35341E7,3.892973E7,6.7625736E7,4.2748704E7,3.7714756E7,3.869071E7,0E0,2.3359134E7,1.2960619E5,1.119114E7,7.22346E6,1.1092E6,1.0328876E7,2.2219088E7,1.3399792E7,0E0,0E0,0E0,0E0,0E0,0E0,0E0,0E0,0E0,0E0,0E0,0E0,0E0,0E0,0E0,0E0,0E0,0E0,0E0,0E0,0E0,0E0,0E0,0E0,0E0,0E0,0E0,0E0,0E0],"parents":[2147483647,0,0,1,1,2,2,3,3,4,4,5,5,6,6,7,7,8,8,9,9,10,10,11,11,12,12,13,13,14,14,15,15,16,16,17,17,18,18,19,19,20,20,22,22,23,23,24,24,25,25,26,26,27,27,28,28,29,29],"right_children":[2,4,6,8,10,12,14,16,18,20,22,24,26,28,30,32,34,36,38,40,42,-1,44,46,48,50,52,54,56,58,-1,-1,-1,-1,-1,-1,-1,-1,-1,-1,-1,-1,-1,-1,-1,-1,-1,-1,-1,-1,-1,-1,-1,-1,-1,-1,-1,-1,-1],"split_conditions":[1.290351E0,-4.518971E-1,3.19441E-1,1E0,-6.2417996E-1,-1.2532606E0,8.987451E-1,-8.842792E-2,5.5534625E-1,1.4674366E0,-6.159026E-1,-1.6755138E-1,1.3252637E0,1E0,1.5571004E0,-1.9137952E0,7.846296E-1,-1.2532606E0,1.7820535E0,-3.0972424E-1,1E0,1.0404692E3,-4.7353172E-1,-6.651564E-1,4.722265E-1,-1.0205885E0,1E0,-7.3624283E-1,1E0,1.2541772E0,7.019959E2,3.5849203E2,-1.9109196E2,-9.6644875E1,1.0442925E2,-1.19477615E2,8.097615E1,-1.6875302E2,1.854259E2,9.305922E1,-8.892323E1,-1.0543264E2,2.4864856E2,1.0072078E2,2.0330403E0,1.162207E0,4.6462208E1,5.284844E2,5.4095703E1,1.0521919E2,3.6141464E1,2.0353041E2,6.6813805E1,1.8104004E2,6.229971E1,3.4270563E2,1.245162E2,8.883602E1,3.32504E2],"split_indices":[12,0,2,1,2,2,0,3,2,0,2,0,0,1,3,2,2,2,2,0,1,0,2,0,0,0,7,0,7,0,0,0,0,0,0,0,0,0,0,0,0,0,0,0,0,0,0,0,0,0,0,0,0,0,0,0,0,0,0],"split_type":[0,0,0,0,0,0,0,0,0,0,0,0,0,0,0,0,0,0,0,0,0,0,0,0,0,0,0,0,0,0,0,0,0,0,0,0,0,0,0,0,0,0,0,0,0,0,0,0,0,0,0,0,0,0,0,0,0,0,0],"sum_hessian":[8.6E2,7E2,1.6E2,2.39E2,4.61E2,9.1E1,6.9E1,1.22E2,1.17E2,1.25E2,3.36E2,4E0,8.7E1,5.4E1,1.5E1,6.1E1,6.1E1,8.4E1,3.3E1,1.13E2,1.2E1,1E0,3.35E2,2E0,2E0,7.6E1,1.1E1,3.2E1,2.2E1,1.4E1,1E0,2E0,5.9E1,5E1,1.1E1,2.2E1,6.2E1,3E1,3E0,1.2E1,1.01E2,4E0,8E0,2.5E1,3.1E2,1E0,1E0,1E0,1E0,2.1E1,5.5E1,9E0,2E0,1.7E1,1.5E1,1.2E1,1E1,4E0,1E1],"tree_param":{"num_deleted":"0","num_feature":"14","num_nodes":"59","size_leaf_vector":"1"}},{"base_weights":[1.2811942E2,-1.0486171E2,1.721128E3,-3.277798E2,3.7164493E2,1.2286803E3,2.4094912E3,-2.2508545E2,-1.7407577E3,7.774386E2,-4.073718E1,7.990977E2,1.9783922E3,4.029167E3,1.9941696E3,-2.892026E2,3.0983955E3,-1.8403526E2,-7.9503654E1,-9.673273E2,1.1186174E3,-1.704695E2,3.6992512E3,1.3091333E3,-5.79645E1,1.377951E3,5.5220156E3,6.3905527E3,1.334225E3,6.517127E2,2.5370662E3,-2.2087599E1,-1.7915935E2,3.0141724E1,6.519264E2,-1.283791E2,2.3882227E1,8.916186E2,7.008418E1,1.0188594E2,-3.8717815E1,-1.0722949E1,7.559347E2,9.825636E1,4.8999728E2,-5.8224056E1,1.0002483E2,7.848558E1,2.2436241E2,1.4944336E2,6.78859E2,1.5619238E2,7.479455E2,2.9483575E2,1.9360254E1,-2.7764976E0,1.1410204E2,1.1334944E2,3.2134576E2],"categories":[],"categories_nodes":[],"categories_segments":[],"categories_sizes":[],"default_left":[0,0,0,0,0,0,0,0,0,0,0,0,0,0,0,0,0,0,0,0,0,0,0,0,0,0,0,0,0,0,0,0,0,0,0,0,0,0,0,0,0,0,0,0,0,0,0,0,0,0,0,0,0,0,0,0,0,0,0],"id":28,"left_children":[1,3,5,7,9,11,13,15,17,19,21,23,25,27,29,31,33,-1,-1,35,37,39,41,43,45,47,49,51,53,55,57,-1,-1,-1,-1,-1,-1,-1,-1,-1,-1,-1,-1,-1,-1,-1,-1,-1,-1,-1,-1,-1,-1,-1,-1,-1,-1,-1,-1],"loss_changes":[3.141657E8,7.861983E7,3.3649664E7,7.2741E7,3.9524396E7,1.9353168E7,2.156336E7,1.01262456E8,1.73928E6,7.192005E7,5.78839E7,1.8872574E7,4.1328896E7,4.2383944E7,2.5312736E7,4.7132756E7,8.414785E7,0E0,0E0,7.94065E6,3.195145E8,3.0034338E7,5.9584104E7,2.6847268E7,1.0013912E7,9.021036E6,5.158592E6,9.34928E6,8.634768E6,4.0213645E6,2.1041024E7,0E0,0E0,0E0,0E0,0E0,0E0,0E0,0E0,0E0,0E0,0E0,0E0,0E0,0E0,0E0,0E0,0E0,0E0,0E0,0E0,0E0,0E0,0E0,0E0,0E0,0E0,0E0,0E0],"parents":[2147483647,0,0,1,1,2,2,3,3,4,4,5,5,6,6,7,7,8,8,9,9,10,10,11,11,12,12,13,13,14,14,15,15,16,16,19,19,20,20,21,21,22,22,23,23,24,24,25,25,26,26,27,27,28,28,29,29,30,30],"right_children":[2,4,6,8,10,12,14,16,18,20,22,24,26,28,30,32,34,-1,-1,36,38,40,42,44,46,48,50,52,54,56,58,-1,-1,-1,-1,-1,-1,-1,-1,-1,-1,-1,-1,-1,-1,-1,-1,-1,-1,-1,-1,-1,-1,-1,-1,-1,-1,-1,-1],"split_conditions":[1.7416782E0,6.143994E-1,1.8788077E-1,1.4054328E0,1.1830908E0,1E0,4.722265E-1,1.247335E0,1.5571004E0,-9.867291E-1,2.3798647E0,-7.3624283E-1,1E0,-8.842792E-2,8.987451E-1,9.3362236E-1,-6.651564E-1,-1.8403526E2,-7.9503654E1,1.5571004E0,-8.2863116E-1,-9.0395534E-1,1.3252637E0,-8.073293E-1,1.5571004E0,1E0,-1.091675E0,3.3005363E-1,2.5896722E-1,7.3433626E-1,2.0935188E-1,-2.2087599E1,-1.7915935E2,3.0141724E1,6.519264E2,-1.283791E2,2.3882227E1,8.916186E2,7.008418E1,1.0188594E2,-3.8717815E1,-1.0722949E1,7.559347E2,9.825636E1,4.8999728E2,-5.8224056E1,1.0002483E2,7.848558E1,2.2436241E2,1.4944336E2,6.78859E2,1.5619238E2,7.479455E2,2.9483575E2,1.9360254E1,-2.7764976E0,1.1410204E2,1.1334944E2,3.2134576E2],"split_indices":[12,0,0,2,0,1,0,2,3,2,3,0,5,3,0,2,0,0,0,3,2,2,0,0,3,6,0,0,0,3,2,0,0,0,0,0,0,0,0,0,0,0,0,0,0,0,0,0,0,0,0,0,0,0,0,0,0,0,0],"split_type":[0,0,0,0,0,0,0,0,0,0,0,0,0,0,0,0,0,0,0,0,0,0,0,0,0,0,0,0,0,0,0,0,0,0,0,0,0,0,0,0,0,0,0,0,0,0,0,0,0,0,0,0,0,0,0,0,0,0,0],"sum_hessian":[8.45E2,7.38E2,1.07E2,5.03E2,2.35E2,6.4E1,4.3E1,4.7E2,3.3E1,1.18E2,1.17E2,4.2E1,2.2E1,7E0,3.6E1,4.62E2,8E0,2.9E1,4E0,1.9E1,9.9E1,1.14E2,3E0,2.6E1,1.6E1,2E1,2E0,3E0,4E0,1.1E1,2.5E1,4.43E2,1.9E1,5E0,3E0,1.5E1,4E0,4E0,9.5E1,1.7E1,9.7E1,2E0,1E0,2.5E1,1E0,1.1E1,5E0,1.3E1,7E0,1E0,1E0,1E0,2E0,1E0,3E0,5E0,6E0,9E0,1.6E1],"tree_param":{"num_deleted":"0","num_feature":"14","num_nodes":"59","size_leaf_vector":"1"}},{"base_weights":[4.072226E1,-2.1117552E2,1.0599966E3,-6.558792E1,-6.375209E2,8.197351E2,2.5494941E3,-4.5175406E2,2.4712456E2,-1.0618367E3,-1.0167282E2,6.3940424E2,1.7641533E3,4.485923E3,2.0347338E3,-5.1017606E2,6.4342316E2,3.4183425E3,1.3048476E2,-1.5559199E3,-8.173826E2,1.969107E3,-7.557252E2,5.0469257E2,1.8658815E2,1.2374601E3,4.8629546E3,5.9421173E2,5.8669925E0,3.7467773E2,2.305645E3,-4.1430125E0,-1.03986595E2,-1.3994128E2,8.515981E2,-1.0735948E1,7.8684166E1,-6.334141E1,-1.5976991E2,1.5460007E1,-1.0322625E2,4.6970517E2,-9.5574844E1,-1.5476823E2,-2.215984E1,8.764434E1,1.3064963E1,8.6345116E1,1.4989726E2,7.8614456E1,6.5082874E2,8.761523E0,4.4116016E1,2.368822E2,6.474062E1],"categories":[],"categories_nodes":[],"categories_segments":[],"categories_sizes":[],"default_left":[0,0,0,0,0,0,0,0,0,0,0,0,0,0,0,0,0,0,0,0,0,0,0,0,0,0,0,0,0,0,0,0,0,0,0,0,0,0,0,0,0,0,0,0,0,0,0,0,0,0,0,0,0,0,0],"id":29,"left_children":[1,3,5,7,9,11,13,15,17,19,21,23,25,27,29,31,-1,33,35,37,39,41,43,45,-1,47,49,-1,-1,51,53,-1,-1,-1,-1,-1,-1,-1,-1,-1,-1,-1,-1,-1,-1,-1,-1,-1,-1,-1,-1,-1,-1,-1,-1],"loss_changes":[2.1897736E8,4.241448E7,5.8389936E7,6.181947E7,3.94542E7,2.3907232E7,1.3798672E7,9.540771E7,1.042329E8,1.0443944E7,1.0713119E8,1.97109E7,3.1520984E7,2.5439144E7,8.130688E6,5.656704E7,0E0,2.5750909E8,4.28588E7,1.82784E5,1.4153172E7,1.5608723E8,2.5037364E7,1.5737278E7,0E0,7.59678E5,1.5006672E7,0E0,0E0,3.7686062E4,2.47376E5,0E0,0E0,0E0,0E0,0E0,0E0,0E0,0E0,0E0,0E0,0E0,0E0,0E0,0E0,0E0,0E0,0E0,0E0,0E0,0E0,0E0,0E0,0E0,0E0],"parents":[2147483647,0,0,1,1,2,2,3,3,4,4,5,5,6,6,7,7,8,8,9,9,10,10,11,11,12,12,13,13,14,14,15,15,17,17,18,18,19,19,20,20,21,21,22,22,23,23,25,25,26,26,29,29,30,30],"right_children":[2,4,6,8,10,12,14,16,18,20,22,24,26,28,30,32,-1,34,36,38,40,42,44,46,-1,48,50,-1,-1,52,54,-1,-1,-1,-1,-1,-1,-1,-1,-1,-1,-1,-1,-1,-1,-1,-1,-1,-1,-1,-1,-1,-1,-1,-1],"split_conditions":[6.152672E-1,1E0,1.2150532E0,-1.589914E-1,4.722265E-1,1.5571004E0,1.259751E0,1.7517823E0,-1.2588188E-1,-6.159026E-1,7.5657225E-1,1.3252637E0,3.3765122E-1,4.0114006E-1,1.4236431E0,-7.715173E-1,6.4342316E2,-8.842792E-2,1E0,-2.1025195E0,-4.1972876E-1,-1.5236948E-1,1.1120044E0,-3.0972424E-1,1.8658815E2,-3.7420318E-1,8.987451E-1,5.9421173E2,5.8669925E0,-1.4471072E0,1E0,-4.1430125E0,-1.03986595E2,-1.3994128E2,8.515981E2,-1.0735948E1,7.8684166E1,-6.334141E1,-1.5976991E2,1.5460007E1,-1.0322625E2,4.6970517E2,-9.5574844E1,-1.5476823E2,-2.215984E1,8.764434E1,1.3064963E1,8.6345116E1,1.4989726E2,7.8614456E1,6.5082874E2,8.761523E0,4.4116016E1,2.368822E2,6.474062E1],"split_indices":[13,8,2,2,0,3,2,0,2,2,0,0,2,0,2,2,0,3,5,2,2,2,0,0,0,2,0,0,0,0,6,0,0,0,0,0,0,0,0,0,0,0,0,0,0,0,0,0,0,0,0,0,0,0,0],"split_type":[0,0,0,0,0,0,0,0,0,0,0,0,0,0,0,0,0,0,0,0,0,0,0,0,0,0,0,0,0,0,0,0,0,0,0,0,0,0,0,0,0,0,0,0,0,0,0,0,0,0,0,0,0,0,0],"sum_hessian":[8.51E2,6.83E2,1.68E2,5.1E2,1.73E2,1.46E2,2.2E1,2.28E2,2.82E2,9.6E1,7.7E1,1.24E2,2.2E1,3E0,1.9E1,2.27E2,1E0,9E0,2.73E2,3E1,6.6E1,1.8E1,5.9E1,1.13E2,1.1E1,2E1,2E0,2E0,1E0,3E0,1.6E1,1.21E2,1.06E2,5E0,4E0,2.01E2,7.2E1,2E0,2.8E1,1.2E1,5.4E1,9E0,9E0,2.3E1,3.6E1,5.6E1,5.7E1,1E1,1E1,1E0,1E0,1E0,2E0,1.5E1,1E0],"tree_param":{"num_deleted":"0","num_feature":"14","num_nodes":"55","size_leaf_vector":"1"}},{"base_weights":[6.888403E0,-2.3027812E2,1.3386167E3,-6.8721564E2,3.9418297E1,7.856386E2,1.7211848E3,-5.09423E2,-1.4261997E3,-1.2952267E2,6.048393E2,9.4782794E2,-4.6192105E2,3.5149612E3,1.5172188E3,-4.0770227E2,-1.8724261E2,-1.575319E3,-2.0398275E1,-2.4262674E2,8.4911835E2,6.879015E1,3.2217024E3,7.8309265E2,3.2127383E3,-6.6198535E2,3.6923244E1,2.737246E2,7.7453687E2,5.61795E2,1.915221E3,-4.8580853E1,2.8293292E2,-1.6891896E2,-1.0490889E2,-3.988353E1,2.6852905E1,-1.8679047E1,-1.655539E2,4.7344128E1,7.1867474E2,5.170096E2,-2.3209593E1,7.9108154E2,2.1411375E2,-2.0930664E1,9.9202866E1,4.6111523E2,2.0795507E1,-1.8295411E0,-1.2995769E2,-1.2191406E1,9.2813965E1,7.95897E1,-1.951263E1,2.8483948E2,1.634047E2],"categories":[],"categories_nodes":[],"categories_segments":[],"categories_sizes":[],"default_left":[0,0,0,0,0,0,0,0,0,0,0,0,0,0,0,0,0,0,0,0,0,0,0,0,0,0,0,0,0,0,0,0,0,0,0,0,0,0,0,0,0,0,0,0,0,0,0,0,0,0,0,0,0,0,0,0,0],"id":30,"left_children":[1,3,5,7,9,11,13,15,17,19,21,23,25,27,29,31,-1,33,35,37,39,41,43,45,47,49,-1,51,-1,53,55,-1,-1,-1,-1,-1,-1,-1,-1,-1,-1,-1,-1,-1,-1,-1,-1,-1,-1,-1,-1,-1,-1,-1,-1,-1,-1],"loss_changes":[2.7161597E8,8.998822E7,2.6149504E7,3.487904E7,4.401882E7,1.1566572E7,2.247312E7,2.9738652E7,1.0868736E7,3.9500356E7,1.4847171E8,1.5766552E7,1.4084158E6,9.386217E7,2.5542288E7,5.3457956E7,0E0,1.044232E6,7.6314356E5,2.4857234E7,8.469087E7,1.378071E8,7.426589E7,9.952986E6,1.1646882E7,2.4386908E6,0E0,1.4077128E6,0E0,4.0536295E6,8.2024E6,0E0,0E0,0E0,0E0,0E0,0E0,0E0,0E0,0E0,0E0,0E0,0E0,0E0,0E0,0E0,0E0,0E0,0E0,0E0,0E0,0E0,0E0,0E0,0E0,0E0,0E0],"parents":[2147483647,0,0,1,1,2,2,3,3,4,4,5,5,6,6,7,7,8,8,9,9,10,10,11,11,12,12,13,13,14,14,15,15,17,17,18,18,19,19,20,20,21,21,22,22,23,23,24,24,25,25,27,27,29,29,30,30],"right_children":[2,4,6,8,10,12,14,16,18,20,22,24,26,28,30,32,-1,34,36,38,40,42,44,46,48,50,-1,52,-1,54,56,-1,-1,-1,-1,-1,-1,-1,-1,-1,-1,-1,-1,-1,-1,-1,-1,-1,-1,-1,-1,-1,-1,-1,-1,-1,-1],"split_conditions":[1.6065172E0,-3.8081068E-1,-5.9406996E-1,-6.651564E-1,7.018558E-1,-6.651564E-1,-3.8081068E-1,1.4236431E0,8.6313164E-1,1.4674366E0,1E0,-8.073293E-1,1.2150532E0,4.9243817E-1,1.8788077E-1,1.2779613E0,-1.8724261E2,1.5571004E0,-8.842792E-2,1.3963501E0,2.3798647E0,8.227055E-1,-2.3863782E-1,-3.410937E-1,-7.3624283E-1,7.8628504E-1,3.6923244E1,7.3433626E-1,7.7453687E2,7.8628504E-1,4.722265E-1,-4.8580853E1,2.8293292E2,-1.6891896E2,-1.0490889E2,-3.988353E1,2.6852905E1,-1.8679047E1,-1.655539E2,4.7344128E1,7.1867474E2,5.170096E2,-2.3209593E1,7.9108154E2,2.1411375E2,-2.0930664E1,9.9202866E1,4.6111523E2,2.0795507E1,-1.8295411E0,-1.2995769E2,-1.2191406E1,9.2813965E1,7.95897E1,-1.951263E1,2.8483948E2,1.634047E2],"split_indices":[12,0,0,0,2,0,0,2,12,0,5,0,2,2,0,2,0,3,3,0,3,2,0,2,0,2,0,3,0,2,0,0,0,0,0,0,0,0,0,0,0,0,0,0,0,0,0,0,0,0,0,0,0,0,0,0,0],"split_type":[0,0,0,0,0,0,0,0,0,0,0,0,0,0,0,0,0,0,0,0,0,0,0,0,0,0,0,0,0,0,0,0,0,0,0,0,0,0,0,0,0,0,0,0,0,0,0,0,0,0,0,0,0,0,0,0,0],"sum_hessian":[8.58E2,7.29E2,1.29E2,2.7E2,4.59E2,5.4E1,7.5E1,2.19E2,5.1E1,3.54E2,1.05E2,4.8E1,6E0,6E0,6.9E1,2.05E2,1.4E1,4.6E1,5E0,3.18E2,3.6E1,8.8E1,1.7E1,4.6E1,2E0,5E0,1E0,4E0,2E0,2.1E1,4.8E1,2.01E2,4E0,3.6E1,1E1,2E0,3E0,3.07E2,1.1E1,3.5E1,1E0,4E0,8.4E1,2E0,1.5E1,8E0,3.8E1,1E0,1E0,3E0,2E0,3E0,1E0,1.6E1,5E0,9E0,3.9E1],"tree_param":{"num_deleted":"0","num_feature":"14","num_nodes":"57","size_leaf_vector":"1"}},{"base_weights":[-7.077543E1,-3.0939566E2,1.1327598E3,-5.7056824E2,1.8113866E2,4.7548312E2,1.07418E3,-3.2214478E2,-9.534919E2,-1.3795512E2,1.125618E3,8.282153E2,1.8383547E3,-7.7409906E2,4.5383444E2,-1.1215527E3,-4.866337E2,1.1803271E2,-1.1008604E3,1.33439865E1,2.237475E3,6.072162E2,2.0014915E3,4.6316313E3,1.5190365E3,1.5288615E0,-1.0875604E2,5.423276E2,1.5706505E1,-8.514305E1,-1.7485605E2,8.07006E1,-6.7705246E1,-8.989468E1,4.326295E1,-1.5220468E2,-5.5523067E1,2.8549646E2,-7.238667E1,3.31121E2,-8.7442604E1,-1.2821149E1,7.484773E1,5.764787E2,1.4059863E2,8.462774E1,6.10117E2,7.05848E1,1.9716573E2],"categories":[],"categories_nodes":[],"categories_segments":[],"categories_sizes":[],"default_left":[0,0,0,0,0,0,0,0,0,0,0,0,0,0,0,0,0,0,0,0,0,0,0,0,0,0,0,0,0,0,0,0,0,0,0,0,0,0,0,0,0,0,0,0,0,0,0,0,0],"id":31,"left_children":[1,3,5,7,9,-1,11,13,15,17,19,21,23,25,27,29,31,33,35,37,39,41,43,45,47,-1,-1,-1,-1,-1,-1,-1,-1,-1,-1,-1,-1,-1,-1,-1,-1,-1,-1,-1,-1,-1,-1,-1,-1],"loss_changes":[2.499167E8,9.311417E7,2.5446384E7,4.478315E7,7.640379E7,0E0,2.5355728E7,1.0170567E8,1.4047888E7,4.6963416E7,7.911827E7,2.730688E7,2.3290496E7,4.5298624E7,1.5694942E8,2.154536E7,1.3109382E7,4.8699624E7,8.347388E6,7.119742E7,1.098188E8,9.861372E6,2.9992848E7,1.1524888E7,1.0386424E7,0E0,0E0,0E0,0E0,0E0,0E0,0E0,0E0,0E0,0E0,0E0,0E0,0E0,0E0,0E0,0E0,0E0,0E0,0E0,0E0,0E0,0E0,0E0,0E0],"parents":[2147483647,0,0,1,1,2,2,3,3,4,4,6,6,7,7,8,8,9,9,10,10,11,11,12,12,13,13,14,14,15,15,16,16,17,17,18,18,19,19,20,20,21,21,22,22,23,23,24,24],"right_children":[2,4,6,8,10,-1,12,14,16,18,20,22,24,26,28,30,32,34,36,38,40,42,44,46,48,-1,-1,-1,-1,-1,-1,-1,-1,-1,-1,-1,-1,-1,-1,-1,-1,-1,-1,-1,-1,-1,-1,-1,-1],"split_conditions":[1.5646251E0,7.3433626E-1,-7.5325996E-1,1.1094246E-1,7.5657225E-1,4.7548312E2,8.987451E-1,4.0114006E-1,1.1120044E0,4.0114006E-1,1.1094246E-1,1.2579232E0,9.698315E-1,-1.0693758E0,4.722265E-1,4.0114006E-1,3.2925022E-1,-1.027538E0,1.5571004E0,8.2765865E-1,1.2579232E0,-4.8408213E-1,1.2728881E0,1.5571004E0,1.3963501E0,1.5288615E0,-1.0875604E2,5.423276E2,1.5706505E1,-8.514305E1,-1.7485605E2,8.07006E1,-6.7705246E1,-8.989468E1,4.326295E1,-1.5220468E2,-5.5523067E1,2.8549646E2,-7.238667E1,3.31121E2,-8.7442604E1,-1.2821149E1,7.484773E1,5.764787E2,1.4059863E2,8.462774E1,6.10117E2,7.05848E1,1.9716573E2],"split_indices":[12,3,10,10,0,0,0,0,0,0,10,10,0,10,0,0,10,10,3,0,10,10,10,3,0,0,0,0,0,0,0,0,0,0,0,0,0,0,0,0,0,0,0,0,0,0,0,0,0],"split_type":[0,0,0,0,0,0,0,0,0,0,0,0,0,0,0,0,0,0,0,0,0,0,0,0,0,0,0,0,0,0,0,0,0,0,0,0,0,0,0,0,0,0,0,0,0,0,0,0,0],"sum_hessian":[8.68E2,7.25E2,1.43E2,4.73E2,2.52E2,1E0,1.42E2,2.88E2,1.85E2,1.89E2,6.3E1,1.09E2,3.3E1,1.82E2,1.06E2,1.35E2,5E1,1.5E2,3.9E1,3.2E1,3.1E1,9.3E1,1.6E1,2E0,3.1E1,5.2E1,1.3E2,5E0,1.01E2,9.6E1,3.9E1,6E0,4.4E1,3.5E1,1.15E2,2.1E1,1.8E1,6E0,2.6E1,2.3E1,8E0,1.5E1,7.8E1,1E0,1.5E1,1E0,1E0,1.2E1,1.9E1],"tree_param":{"num_deleted":"0","num_feature":"14","num_nodes":"49","size_leaf_vector":"1"}},{"base_weights":[5.988469E1,-1.3016206E2,1.0697665E3,-5.0696146E2,1.3979901E2,6.1494653E2,1.6356226E3,-7.2662726E2,-3.1264148E2,4.7970463E1,3.0251765E3,5.219471E2,1.6284492E2,3.3567856E3,1.2242543E3,-1.8504973E2,-9.954474E2,2.4471025E3,-5.902328E2,-1.429969E2,8.135838E2,4.3999565E3,-1.1680672E2,6.592215E2,-1.5177704E2,5.9698926E3,1.0107399E3,-8.125696E1,1.7860807E3,-5.200956E1,3.6304785E2,-1.288522E2,-1.793862E1,7.320604E1,6.9804535E2,-4.359582E1,-1.23583984E2,7.686255E1,-2.6114298E1,4.910924E1,9.1421594E2,6.7111884E2,1.740604E2,4.99503E1,5.0413068E2,2.6306202E1,-6.795996E1,8.2252893E2,1.7245319E2,-2.6954395E1,2.038339E2,-7.198838E1,2.7447195E1,9.756262E1,2.166508E2],"categories":[],"categories_nodes":[],"categories_segments":[],"categories_sizes":[],"default_left":[0,0,0,0,0,0,0,0,0,0,0,0,0,0,0,0,0,0,0,0,0,0,0,0,0,0,0,0,0,0,0,0,0,0,0,0,0,0,0,0,0,0,0,0,0,0,0,0,0,0,0,0,0,0,0],"id":32,"left_children":[1,3,5,7,9,11,13,15,17,19,21,23,-1,25,27,29,31,33,35,37,39,41,-1,43,45,47,49,51,53,-1,-1,-1,-1,-1,-1,-1,-1,-1,-1,-1,-1,-1,-1,-1,-1,-1,-1,-1,-1,-1,-1,-1,-1,-1,-1],"loss_changes":[1.6481067E8,7.361529E7,3.399549E7,1.2663824E7,1.11668024E8,6.40769E6,3.837237E7,2.0343552E7,1.2554949E8,6.006127E7,8.008166E7,6.75898E6,0E0,6.140115E7,3.6818664E7,6.325028E7,2.2250536E7,1.1151319E8,1.4202148E7,3.5635536E7,2.1575363E8,4.978227E7,0E0,3.9475856E7,3.0252752E6,3.369008E7,9.758749E6,3.8324365E6,8.677456E6,0E0,0E0,0E0,0E0,0E0,0E0,0E0,0E0,0E0,0E0,0E0,0E0,0E0,0E0,0E0,0E0,0E0,0E0,0E0,0E0,0E0,0E0,0E0,0E0,0E0,0E0],"parents":[2147483647,0,0,1,1,2,2,3,3,4,4,5,5,6,6,7,7,8,8,9,9,10,10,11,11,13,13,14,14,15,15,16,16,17,17,18,18,19,19,20,20,21,21,23,23,24,24,25,25,26,26,27,27,28,28],"right_children":[2,4,6,8,10,12,14,16,18,20,22,24,-1,26,28,30,32,34,36,38,40,42,-1,44,46,48,50,52,54,-1,-1,-1,-1,-1,-1,-1,-1,-1,-1,-1,-1,-1,-1,-1,-1,-1,-1,-1,-1,-1,-1,-1,-1,-1,-1],"split_conditions":[1.5239187E0,-8.842792E-2,1.8788077E-1,-2.6209092E-1,1.538523E0,1.4731833E0,4.722265E-1,-1.1161227E0,-1.5275583E-1,6.295172E-1,1.0340806E0,7.8152573E-1,1.6284492E2,-1.210463E-1,8.2765865E-1,-1.1295137E0,8.987451E-1,-1.9601467E-1,1E0,-1.0205885E0,1.3252637E0,7.3433626E-1,-1.1680672E2,7.230658E-1,-5.9406996E-1,7.3433626E-1,1E0,-8.842792E-2,1.1094246E-1,-5.200956E1,3.6304785E2,-1.288522E2,-1.793862E1,7.320604E1,6.9804535E2,-4.359582E1,-1.23583984E2,7.686255E1,-2.6114298E1,4.910924E1,9.1421594E2,6.7111884E2,1.740604E2,4.99503E1,5.0413068E2,2.6306202E1,-6.795996E1,8.2252893E2,1.7245319E2,-2.6954395E1,2.038339E2,-7.198838E1,2.7447195E1,9.756262E1,2.166508E2],"split_indices":[12,3,0,10,0,10,0,10,10,10,10,10,0,10,0,10,0,10,6,0,0,3,0,10,0,3,7,3,10,0,0,0,0,0,0,0,0,0,0,0,0,0,0,0,0,0,0,0,0,0,0,0,0,0,0],"split_type":[0,0,0,0,0,0,0,0,0,0,0,0,0,0,0,0,0,0,0,0,0,0,0,0,0,0,0,0,0,0,0,0,0,0,0,0,0,0,0,0,0,0,0,0,0,0,0,0,0,0,0,0,0,0,0],"sum_hessian":[8.57E2,7.22E2,1.35E2,3.01E2,4.21E2,7.6E1,5.9E1,1.4E2,1.61E2,4.09E2,1.2E1,7.1E1,5E0,1E1,4.9E1,4.7E1,9.3E1,1.4E1,1.47E2,3.28E2,8.1E1,9E0,3E0,5.9E1,1.2E1,4E0,6E0,1.5E1,3.4E1,4.4E1,3E0,6.8E1,2.5E1,1.1E1,3E0,1.2E2,2.7E1,3.7E1,2.91E2,7.9E1,2E0,4E0,5E0,5.8E1,1E0,7E0,5E0,2E0,2E0,3E0,3E0,5E0,1E1,1.2E1,2.2E1],"tree_param":{"num_deleted":"0","num_feature":"14","num_nodes":"55","size_leaf_vector":"1"}},{"base_weights":[1.2914574E2,-3.4486664E1,8.01204E2,-3.3131766E2,1.9613458E2,6.4711304E2,1.8084016E3,1.3748282E3,-3.642265E2,3.0607803E2,-9.7697473E2,1.0745075E2,7.2994867E2,3.6119805E3,1.3335219E3,-1.0701117E3,4.176472E3,-8.742824E2,-2.7115308E2,1.1001416E2,1.6136107E3,-1.3221879E3,1.9426707E3,-2.8060926E1,6.903906E2,9.276944E2,3.769258E2,4.9304517E2,-1.717168E1,3.117202E2,1.903596E2,-2.9631979E1,-1.6957437E2,6.839924E2,-5.7521584E1,-2.2075949E1,-1.577182E2,6.6758514E2,-3.2457603E1,-9.325119E1,2.3531868E1,9.902093E2,1.0251873E2,-1.8240746E2,-1.0998012E2,3.9769724E2,-6.108724E0,4.134746E1,-1.0909503E1,1.2557813E1,8.368021E1,7.337685E1,3.2617953E2,-5.4119325E0,1.1661328E2,9.144636E1,-4.160482E0],"categories":[],"categories_nodes":[],"categories_segments":[],"categories_sizes":[],"default_left":[0,0,0,0,0,0,0,0,0,0,0,0,0,0,0,0,0,0,0,0,0,0,0,0,0,0,0,0,0,0,0,0,0,0,0,0,0,0,0,0,0,0,0,0,0,0,0,0,0,0,0,0,0,0,0,0,0],"id":33,"left_children":[1,3,5,7,9,11,13,15,17,19,21,23,25,27,29,31,33,35,37,39,41,43,45,47,49,51,53,-1,-1,55,-1,-1,-1,-1,-1,-1,-1,-1,-1,-1,-1,-1,-1,-1,-1,-1,-1,-1,-1,-1,-1,-1,-1,-1,-1,-1,-1],"loss_changes":[9.548205E7,4.7915404E7,2.521376E7,1.7681808E7,5.111545E7,6.582356E6,1.4025984E7,4.5568396E7,1.4052208E7,9.236842E7,3.6837176E7,1.6782714E6,8.655648E6,2.0801428E7,1.047416E7,1.433953E6,4.19021E7,2.0782428E7,9.717598E7,4.1368904E7,2.1907395E8,1.453884E6,1.6547933E7,6.891379E5,2.2569612E5,3.4723304E7,1.6391932E7,0E0,0E0,1.7417605E6,0E0,0E0,0E0,0E0,0E0,0E0,0E0,0E0,0E0,0E0,0E0,0E0,0E0,0E0,0E0,0E0,0E0,0E0,0E0,0E0,0E0,0E0,0E0,0E0,0E0,0E0,0E0],"parents":[2147483647,0,0,1,1,2,2,3,3,4,4,5,5,6,6,7,7,8,8,9,9,10,10,11,11,12,12,13,13,14,14,15,15,16,16,17,17,18,18,19,19,20,20,21,21,22,22,23,23,24,24,25,25,26,26,29,29],"right_children":[2,4,6,8,10,12,14,16,18,20,22,24,26,28,30,32,34,36,38,40,42,44,46,48,50,52,54,-1,-1,56,-1,-1,-1,-1,-1,-1,-1,-1,-1,-1,-1,-1,-1,-1,-1,-1,-1,-1,-1,-1,-1,-1,-1,-1,-1,-1,-1],"split_conditions":[1.2085431E0,-8.842792E-2,1.2150532E0,-1.9137952E0,1.4054328E0,-1.1963E0,1.259751E0,-1.996569E0,-9.544473E-1,7.846296E-1,2.3798647E0,7.3433626E-1,3.2786924E-1,2.4704207E-1,1.6057453E0,1E0,1E0,-1.2689877E0,-9.229933E-1,-1.3674884E0,8.227055E-1,-5.84323E-1,1.5329044E0,1.2192137E0,1E0,1.6799133E-1,1.436356E0,4.9304517E2,-1.717168E1,1E0,1.903596E2,-2.9631979E1,-1.6957437E2,6.839924E2,-5.7521584E1,-2.2075949E1,-1.577182E2,6.6758514E2,-3.2457603E1,-9.325119E1,2.3531868E1,9.902093E2,1.0251873E2,-1.8240746E2,-1.0998012E2,3.9769724E2,-6.108724E0,4.134746E1,-1.0909503E1,1.2557813E1,8.368021E1,7.337685E1,3.2617953E2,-5.4119325E0,1.1661328E2,9.144636E1,-4.160482E0],"split_indices":[12,3,2,2,2,9,2,2,2,2,3,3,9,9,2,6,1,2,2,2,2,9,2,12,1,9,9,0,0,7,0,0,0,0,0,0,0,0,0,0,0,0,0,0,0,0,0,0,0,0,0,0,0,0,0,0,0],"split_type":[0,0,0,0,0,0,0,0,0,0,0,0,0,0,0,0,0,0,0,0,0,0,0,0,0,0,0,0,0,0,0,0,0,0,0,0,0,0,0,0,0,0,0,0,0,0,0,0,0,0,0,0,0,0,0,0,0],"sum_hessian":[8.67E2,6.98E2,1.69E2,3.05E2,3.93E2,1.48E2,2.1E1,5E0,3E2,3.6E2,3.3E1,2E1,1.28E2,3E0,1.8E1,3E0,2E0,4.5E1,2.55E2,3.14E2,4.6E1,3E1,3E0,1.7E1,3E0,8.1E1,4.7E1,2E0,1E0,7E0,1.1E1,2E0,1E0,1E0,1E0,2.4E1,2.1E1,1E0,2.54E2,3.3E1,2.81E2,2E0,4.4E1,7E0,2.3E1,1E0,2E0,2E0,1.5E1,1E0,2E0,7.6E1,5E0,3.1E1,1.6E1,2E0,5E0],"tree_param":{"num_deleted":"0","num_feature":"14","num_nodes":"57","size_leaf_vector":"1"}},{"base_weights":[9.535734E1,-3.024496E1,1.1523837E3,9.193836E1,-4.0172836E2,4.3621797E3,9.9517505E2,-1.1672125E2,5.120104E2,-7.412573E2,7.2703354E1,9.852461E2,7.2464905E2,3.481268E2,1.4281111E3,2.3863147E3,-1.4222491E2,1.9299258E2,1.1569998E3,-8.615969E2,2.4145177E2,1.6231683E3,-5.701219E2,-1.3599024E1,1.6138594E2,4.178989E1,2.300325E3,1.0934287E3,2.203078E3,6.497928E2,-1.1501989E2,-2.2311827E1,5.873877E1,4.584698E1,-5.778827E1,5.533049E2,7.7304565E1,-1.3164206E2,-5.492274E1,8.743799E1,-1.3700294E1,-2.9585707E1,6.325924E2,-1.3923128E1,-1.0268178E2,-2.1463964E1,1.2314961E2,4.991289E1,4.7525546E2,1.3735231E2,-3.8322044E1,5.264004E2,1.6084401E2],"categories":[],"categories_nodes":[],"categories_segments":[],"categories_sizes":[],"default_left":[0,0,0,0,0,0,0,0,0,0,0,0,0,0,0,0,0,0,0,0,0,0,0,0,0,0,0,0,0,0,0,0,0,0,0,0,0,0,0,0,0,0,0,0,0,0,0,0,0,0,0,0,0],"id":34,"left_children":[1,3,5,7,9,11,13,15,17,19,21,23,-1,25,27,29,31,33,35,37,39,41,43,-1,-1,45,47,49,51,-1,-1,-1,-1,-1,-1,-1,-1,-1,-1,-1,-1,-1,-1,-1,-1,-1,-1,-1,-1,-1,-1,-1,-1],"loss_changes":[1.1500929E8,3.5213468E7,4.208275E7,5.1248572E7,3.0981886E7,3.182092E7,2.4434456E7,2.5299502E7,3.9694744E7,1.3453028E7,8.165632E7,2.3339408E6,0E0,2.2030994E7,1.1337584E7,6.563701E7,2.3031128E7,2.7074068E7,1.0325563E8,1.348428E7,3.2337425E6,2.1846453E8,1.127062E7,0E0,0E0,1.033183E7,1.9712596E7,1.6656804E7,1.8835304E7,0E0,0E0,0E0,0E0,0E0,0E0,0E0,0E0,0E0,0E0,0E0,0E0,0E0,0E0,0E0,0E0,0E0,0E0,0E0,0E0,0E0,0E0,0E0,0E0],"parents":[2147483647,0,0,1,1,2,2,3,3,4,4,5,5,6,6,7,7,8,8,9,9,10,10,11,11,13,13,14,14,15,15,16,16,17,17,18,18,19,19,20,20,21,21,22,22,25,25,26,26,27,27,28,28],"right_children":[2,4,6,8,10,12,14,16,18,20,22,24,-1,26,28,30,32,34,36,38,40,42,44,-1,-1,46,48,50,52,-1,-1,-1,-1,-1,-1,-1,-1,-1,-1,-1,-1,-1,-1,-1,-1,-1,-1,-1,-1,-1,-1,-1,-1],"split_conditions":[1.8918571E0,1E0,-2.655336E-2,7.3433626E-1,4.722265E-1,-3.0972424E-1,-8.842792E-2,-1.9137952E0,2.8798696E-1,1E0,-4.8263684E-1,-1.3760208E0,7.2464905E2,1E0,1.2150532E0,-1.091675E0,1.290351E0,-1.2588188E-1,3.6662203E-1,-4.7022077E-1,-1.3161687E0,-6.2417996E-1,-8.842792E-2,-1.3599024E1,1.6138594E2,1.3309364E0,-1.1627614E0,9.7997564E-1,1.259751E0,6.497928E2,-1.1501989E2,-2.2311827E1,5.873877E1,4.584698E1,-5.778827E1,5.533049E2,7.7304565E1,-1.3164206E2,-5.492274E1,8.743799E1,-1.3700294E1,-2.9585707E1,6.325924E2,-1.3923128E1,-1.0268178E2,-2.1463964E1,1.2314961E2,4.991289E1,4.7525546E2,1.3735231E2,-3.8322044E1,5.264004E2,1.6084401E2],"split_indices":[12,8,2,3,0,0,3,2,2,4,2,0,0,6,2,0,12,2,2,2,2,2,3,0,0,2,0,2,2,0,0,0,0,0,0,0,0,0,0,0,0,0,0,0,0,0,0,0,0,0,0,0,0],"split_type":[0,0,0,0,0,0,0,0,0,0,0,0,0,0,0,0,0,0,0,0,0,0,0,0,0,0,0,0,0,0,0,0,0,0,0,0,0,0,0,0,0,0,0,0,0,0,0,0,0,0,0,0,0],"sum_hessian":[8.65E2,7.74E2,9.1E1,5.83E2,1.91E2,3E0,8.8E1,3.9E2,1.93E2,1.11E2,8E1,2E0,1E0,3.6E1,5.2E1,3E0,3.87E2,1.3E2,6.3E1,9.9E1,1.2E1,